[{"type": "DenseLayer", "input_dim": 784, "output_dim": 128, "activation": "RELU", "weights": [[0.14196577668190002, 0.17726661264896393, -0.014692706987261772, 0.12153121829032898, -0.19367918372154236, 0.09193965792655945, 0.3326210677623749, 0.35489553213119507, 0.1123853549361229, 0.03389687463641167, 0.3355604112148285, 0.26121076941490173, -0.013512970879673958, -0.22623541951179504, -0.08963310718536377, -0.12184929102659225, 0.17027878761291504, 0.3430442810058594, 0.09976973384618759, 0.15333522856235504, 0.5383315086364746, 0.4698735177516937, 0.09976683557033539, -0.1705733835697174, 0.0685562714934349, 0.012610667385160923, 0.08311483263969421, 0.0822388082742691, 0.25753769278526306, 0.12699513137340546, 0.04614907503128052, 0.10931369662284851, -0.018680008128285408, 0.14730514585971832, 0.05642668530344963, 0.21634992957115173, 0.18011198937892914, 0.1886620819568634, 0.1897667795419693, 0.2759481966495514, 0.010503031313419342, -0.02575165219604969, 0.011862283572554588, 0.05523412674665451, 0.032000862061977386, -0.056813351809978485, 0.2388170063495636, 0.2885894775390625, 0.2598569691181183, 0.1993536800146103, 0.1337122768163681, 0.10620331019163132, 0.19096115231513977, 0.18370166420936584, 0.20670942962169647, 0.18372082710266113, 0.22348542511463165, -0.033848874270915985, -0.01235338393598795, 0.15180963277816772, -0.08793617784976959, 0.03126757591962814, -0.12603874504566193, 0.05435747280716896, 0.11132505536079407, -0.03636987507343292, -0.21709765493869781, -0.09246758371591568, -0.042046092450618744, -0.06913125514984131, 0.10419569164514542, 0.03519401326775551, -0.1268007606267929, -0.06410285085439682, -0.04866805672645569, 0.09360799193382263, 0.14838138222694397, 0.0789930671453476, 0.07584559172391891, 0.14141720533370972, 0.19977302849292755, 0.1744089424610138, 0.0964374989271164, 0.15245403349399567, -0.04686569422483444, -0.05531083419919014, 0.09845061600208282, 0.037236202508211136, 0.12133489549160004, 0.0438929945230484, 0.13591597974300385, -0.036814119666814804, 0.06733174622058868, 0.053673457354307175, -0.041285041719675064, -0.10398642718791962, -0.01757391169667244, -0.04696843773126602, -0.11126913875341415, 0.007252137176692486, -0.08663364499807358, 0.0041891769506037235, -0.01849481277167797, 0.05334734544157982, -0.0741388201713562, -0.020883014425635338, 0.019409095868468285, 0.0032469092402607203, 0.09356006979942322, 0.054643355309963226, 0.1955474615097046, -0.0022879447788000107, -0.11306267976760864, -0.1381131112575531, -0.07933828979730606, 0.08695423603057861, 0.1017855629324913, 0.08955138921737671, 0.049011800438165665, -0.1485629379749298, 0.016156712546944618, 0.02860311232507229, -0.03472300246357918, 0.014291968196630478, -0.05842183530330658, -0.034038837999105453, -0.0655384361743927, 0.03710513189435005, 0.02093053236603737, 0.04452413320541382, 0.10106812417507172, 0.03398820012807846, 0.0003434963582549244, -0.05077085644006729, 0.045424189418554306, -0.03965622931718826, 0.05932511389255524, 0.07778856158256531, -0.1545974612236023, 0.190254345536232, 0.01054926123470068, -0.08863230049610138, -0.0049676429480314255, 0.09972317516803741, 0.14925719797611237, 0.061372872442007065, 0.032556504011154175, -0.13066358864307404, 0.1132952943444252, 0.08767927438020706, -0.06692386418581009, 0.042925041168928146, -0.15897917747497559, 0.056453678756952286, -0.16376157104969025, -0.07449706643819809, -0.14020656049251556, -0.03542753681540489, 0.04139639064669609, 0.07290392369031906, -0.025953209027647972, -0.06444470584392548, 0.1567549705505371, 0.049739591777324677, -0.0019601229578256607, 0.11333789676427841, -0.10486402362585068, 0.19212906062602997, 0.1765393316745758, 0.15115495026111603, 0.06681518256664276, 0.02250462770462036, 0.05227025970816612, 0.007767737377434969, 0.051770858466625214, -0.15290583670139313, 0.029141627252101898, 0.19363896548748016, -0.0021206417586654425, -0.11048255860805511, -0.0757959857583046, 0.09455017000436783, 0.058665063232183456, 0.01024058647453785, -0.004462075885385275, -0.06369451433420181, 0.2674022316932678, 0.07055222988128662, -0.09028114378452301, -0.10608384758234024, 0.03212969750165939, -0.01845616288483143, -0.09017156809568405, 0.04844103381037712, 0.12454771250486374, -0.05923239514231682, 0.2462008148431778, 0.10631944239139557, 0.05711587518453598, -0.03239342197775841, -0.06919565796852112, -0.05089680850505829, 0.06844498962163925, -0.06679253280162811, 0.003856525057926774, 0.10769210010766983, -0.002269153716042638, -0.08771458268165588, 0.08303282409906387, 0.11469545215368271, -0.17047424614429474, -0.03610536828637123, 0.004961976781487465, -0.08232806622982025, 0.1022053062915802, 0.2173302322626114, -0.05158884823322296, 0.02907765656709671, -0.047639619559049606, -0.16806812584400177, -0.12583716213703156, 0.051898278295993805, 0.02883267216384411, -0.17339445650577545, 0.22272084653377533, 0.16988053917884827, 0.07383275032043457, -0.1997906118631363, 0.017312290146946907, -0.11120418459177017, 0.03375960513949394, -0.0752783939242363, 0.024326425045728683, 0.07496131211519241, -0.07504992932081223, -0.03412194177508354, -0.10494513809680939, -0.07513710111379623, 0.04715552181005478, -0.08500081300735474, 0.02371523343026638, -0.007071765139698982, 0.009467048570513725, 0.09329057484865189, -0.09725375473499298, -0.024642275646328926, 0.03905589506030083, -0.09663260728120804, -0.09400014579296112, -0.05527683347463608, -0.02619103528559208, -0.12750445306301117, 0.15919385850429535, -0.047414738684892654, -0.038077134639024734, -0.09434741735458374, 0.06812677532434464, -0.031315580010414124, -0.06673350185155869, 0.0020548496395349503, 0.0800396129488945, 0.03063100390136242, -0.05923568829894066, -0.047607727348804474, -0.006995049305260181, -0.09738940000534058, -0.05667758360505104, -0.0060676648281514645, -0.0052616479806602, 0.12152909487485886, 0.015865957364439964, 0.046120595186948776, 0.02818899229168892, -0.031189080327749252, -0.047052785754203796, 0.0599602572619915, -0.10386626422405243, -0.1127982810139656, -0.11557281762361526, 0.06161162629723549, -0.016295697540044785, -0.04372602328658104, -0.18321266770362854, -0.1474522352218628, 0.05143221840262413, 0.026109350845217705, -0.004532280843704939, 0.04783399775624275, 0.024416383355855942, -0.00029879005160182714, -0.0353371761739254, 0.09309317916631699, -0.02495051920413971, -0.13096000254154205, -0.04991713911294937, 0.028790751472115517, 0.10823986679315567, 0.0983673706650734, 0.05705927312374115, 0.08888242393732071, -0.06193157285451889, -0.060395047068595886, 0.004773173946887255, 0.10266978293657303, -0.15543900430202484, -0.07159160077571869, -0.07054700702428818, -0.1733296811580658, 0.09561103582382202, -0.18504904210567474, -0.0403866171836853, -0.1552582085132599, 0.035003893077373505, -0.019855976104736328, -0.2152162343263626, -0.1468765139579773, 0.021406641229987144, -0.04055754095315933, -0.015278183855116367, 0.13409680128097534, 0.08211831003427505, 0.09314793348312378, -0.030655572190880775, 0.029310325160622597, 0.04747253283858299, 0.05870548635721207, 0.0672198161482811, -0.010605421848595142, -0.10100031644105911, -0.009901112876832485, 0.0167227815836668, 0.040308788418769836, -0.08256492018699646, 0.07207867503166199, -0.04244418814778328, -0.2263239622116089, 0.19237031042575836, 0.0004672940995078534, -0.09357748925685883, -0.10699634999036789, 0.11118236929178238, -0.15110482275485992, -0.15606540441513062, -0.17435462772846222, -0.07730313390493393, -0.04586262255907059, 0.09373043477535248, 0.055451735854148865, 0.09649569541215897, -0.09949346631765366, 0.023014508187770844, 0.08344005048274994, 0.09677105396986008, 0.12080482393503189, 0.09809145331382751, -0.06673301756381989, -0.003815636970102787, -0.17913301289081573, -0.037788812071084976, 0.05896792933344841, 0.1167849749326706, 0.012432425282895565, 0.03265657275915146, -0.09835045784711838, -0.05623263120651245, -0.04405956715345383, -0.07328248769044876, 0.045438483357429504, 0.013420292176306248, -0.14760328829288483, -0.05832334980368614, -0.02865055948495865, -0.13607299327850342, 0.016738396137952805, 0.061241500079631805, 0.06871102005243301, 0.07170196622610092, 0.04743754118680954, 0.11517175287008286, 0.03630448505282402, 0.051864467561244965, -0.027040738612413406, 0.0632520392537117, -0.02335330657660961, -0.13666732609272003, -0.12111935764551163, -0.09532512724399567, 0.01519006583839655, 0.09807257354259491, 0.03802245855331421, 0.043174296617507935, -0.01734268292784691, -0.06446083635091782, -0.014036042615771294, -0.16308274865150452, -0.020644618198275566, -0.09339096397161484, -0.26631399989128113, -0.25696080923080444, -0.1714455485343933, -0.1002432331442833, -0.02998511493206024, -0.08464924246072769, 0.0856935903429985, -0.059304021298885345, -0.007384526077657938, -0.014141040854156017, -0.0062812576070427895, -0.039989106357097626, 0.03173478692770004, -0.0625043585896492, -0.004910599905997515, -0.17809666693210602, -0.03953402116894722, -0.02116897515952587, -0.07654756307601929, -0.010683686472475529, 0.07518776506185532, 0.20759911835193634, 0.10066180676221848, -0.07151661068201065, -0.09123638272285461, -0.0989956334233284, -0.021095652133226395, -0.06715046614408493, -0.25866037607192993, -0.2102452963590622, -0.05326307564973831, -0.1635017991065979, 0.004586603492498398, 0.05637705326080322, 0.057668160647153854, 0.07199372351169586, 0.01702706702053547, -0.025242729112505913, 0.12540625035762787, 0.06628698855638504, 0.12560279667377472, 0.0736398845911026, 0.00771332299336791, -0.06324999779462814, -0.027536556124687195, 0.025425851345062256, -0.014731910079717636, 0.010068872943520546, 0.17333710193634033, 0.15625721216201782, -0.15238367021083832, -0.004441315308213234, -0.09425332397222519, 0.010431907139718533, 0.06053456664085388, -0.19407738745212555, -0.18773451447486877, -0.20079605281352997, -0.1437475085258484, -0.13440434634685516, 0.05731091648340225, 0.03392981365323067, 0.053433652967214584, 0.029285240918397903, 0.13144369423389435, 0.03583080321550369, 0.09446217864751816, 0.05768491327762604, 0.17812775075435638, 0.10254029184579849, 0.11916089057922363, -0.04164155200123787, 0.023606112226843834, -0.06371211260557175, -0.01753591001033783, 0.04192846268415451, 0.09802703559398651, -0.0028088707476854324, -0.0536668635904789, -0.0466323085129261, -0.023395122960209846, 0.12188003957271576, 0.13687099516391754, -0.15017768740653992, -0.11552565544843674, -0.18279597163200378, -0.1278018355369568, -0.08417254686355591, 0.09788534045219421, 0.06543033570051193, 0.06463241577148438, 0.06096161901950836, -0.046533480286598206, -0.022722316905856133, 0.07251972705125809, 0.0980919599533081, 0.17057684063911438, 0.04219701141119003, -0.03405430167913437, -0.09130706638097763, 0.04072868451476097, 0.02034301869571209, -0.03673956170678139, 0.03664756193757057, 0.03969099000096321, 0.0164326261729002, 0.06767471134662628, -0.011937967501580715, -0.09584395587444305, 0.032591287046670914, 0.09952878206968307, 0.024433333426713943, 0.0787791833281517, 0.011077330447733402, -0.04923655837774277, 0.03799011930823326, -0.038669854402542114, -0.014714276418089867, 0.0455097071826458, 0.021186118945479393, 0.08030585944652557, -0.03652141988277435, -0.02404681220650673, 0.07818830013275146, 0.03814832121133804, 0.07534436881542206, -0.026782793924212456, 0.05996678024530411, -0.08745227754116058, -0.08084001392126083, 0.05737173929810524, 0.06478285789489746, 0.1591716706752777, 0.115157850086689, -0.0016711505595594645, -0.02269957959651947, 0.033930957317352295, 0.0940191000699997, 0.07859091460704803, 0.06318788230419159, -0.08291098475456238, -0.07480915635824203, -0.0532633475959301, 0.04162735119462013, 0.0026754578575491905, -0.11558377742767334, 0.004913063254207373, 0.08671826124191284, -0.08435022085905075, -0.05794678255915642, 0.05443383753299713, -0.029780050739645958, 0.04694515839219093, 0.10479497164487839, -0.14200040698051453, 0.11320836842060089, 0.11639922857284546, 0.11163222044706345, -0.07509274035692215, 0.020016133785247803, -0.005789614748209715, -0.03361309692263603, 0.057685643434524536, 0.03265612944960594, 0.07482285797595978, 0.17338256537914276, 0.19184668362140656, 0.02765739895403385, 0.09602298587560654, 0.07557307183742523, 0.00249356497079134, -0.02462289109826088, 0.03868944197893143, -0.0005427932483144104, -0.01319735124707222, 0.0546126626431942, -0.07376055419445038, -0.14117945730686188, -0.0447620190680027, -0.0327116921544075, -0.05879512429237366, 0.09924530237913132, -0.06470687687397003, 0.09293406456708908, -0.12297889590263367, 0.012624308466911316, 0.06799525022506714, 0.016360323876142502, -0.05114051327109337, -0.06724987179040909, 0.08808251470327377, -0.010870315134525299, -0.047538191080093384, 0.06374931335449219, 0.025048019364476204, 0.006361179519444704, -0.04241061583161354, 0.017953136935830116, -0.10253380984067917, 0.050439413636922836, 0.002364089246839285, 0.026662524789571762, -0.02972797490656376, -0.04675093665719032, 0.01797514222562313, -0.10103387385606766, -0.18200135231018066, -0.045567966997623444, 0.0051979380659759045, 0.12071016430854797, 0.029848922044038773, -0.10210703313350677, -0.15547551214694977, -0.15561844408512115, -0.12640078365802765, -0.16169674694538116, 0.03723651543259621, 0.013368343003094196, 0.07158448547124863, 0.0739220604300499, 0.06020897999405861, -0.00527194794267416, -0.09288498014211655, -0.11065595597028732, -0.0628652572631836, -0.014807159081101418, -0.18147215247154236, -0.0676036849617958, 0.014776325784623623, -0.08884701132774353, 0.06849385052919388, 0.009040125645697117, -0.13438400626182556, 0.027918558567762375, 0.013519511558115482, 0.024210263043642044, 0.0016191272297874093, 0.05843083932995796, -0.16564691066741943, -0.14613686501979828, -0.12815359234809875, -0.15894140303134918, -0.3666703701019287, -0.32540369033813477, -0.2576681673526764, -0.08612410724163055, -0.18616627156734467, 0.07586552947759628, -0.05030694603919983, 0.019259873777627945, -0.12208341062068939, -0.1076025739312172, 0.09194526821374893, 0.04337359219789505, -0.11345312744379044, 0.04722575470805168, 0.0986897349357605, -0.012181895785033703, -0.007652050815522671, -0.011068612337112427, -0.06864923238754272, -0.09048900008201599, -0.08391035348176956, 0.13735546171665192, 0.09994875639677048, 0.11008278280496597, -0.12796710431575775, -0.04335203021764755, 0.10220915824174881, -0.14820025861263275, -0.16433924436569214, -0.22258718311786652, -0.24062715470790863, 0.019368363544344902, -0.0739724189043045, 0.14050959050655365, -0.14083600044250488, -0.14843857288360596, -0.2153998762369156, -0.26545435190200806, 0.08783526718616486, 0.21134427189826965, 0.023802990093827248, 0.11822623759508133, -0.010304831899702549, -0.014580105431377888, -0.00814215000718832, -0.0008697923040017486, -0.10879543423652649, -0.07973884791135788, -0.0808432400226593, -0.01709035411477089, -0.12846362590789795, -0.020466038957238197, 0.035373568534851074, -0.027289779856801033, 0.049906469881534576, 0.011235203593969345, -0.2226048856973648, -0.30379268527030945, -0.20892438292503357, -0.1539146453142166, -0.20175683498382568, -0.045388855040073395, 0.1065828874707222, -0.09299713373184204, -0.20100033283233643, -0.2697989344596863, 0.054051339626312256, 0.14403071999549866, 0.1502583622932434, 0.007686583325266838, -0.04449714720249176, -0.1404666006565094, 0.01280199084430933, -0.019286608323454857, -0.0307010505348444, -0.12530970573425293, -0.08406046032905579, 0.00881454348564148, 0.022947777062654495, 0.0019076768076047301, 0.15661117434501648, 0.14763306081295013, 0.11584843695163727, 0.0515313595533371, -0.32833072543144226, -0.174759641289711, -0.1679838001728058, -0.21177847683429718, -0.08294597268104553, -0.13705135881900787, -0.26729753613471985, -0.2760830819606781, -0.32948002219200134, -0.23739120364189148, 0.009591517969965935, -0.048122625797986984, 0.08895836770534515, 0.09083544462919235, 0.011657947674393654, -0.028384309262037277, 0.16399089992046356, -0.005562616512179375, 0.0668342337012291, 0.13308537006378174, -0.005676111672073603, 0.1461820900440216, 0.0071168034337460995, -0.05195217952132225, 0.11475631594657898, 0.22922644019126892, 0.047127578407526016, 0.07715632766485214, -0.11394459009170532, -0.14820288121700287, -0.25475046038627625, 0.05191788449883461, 0.15907041728496552, 0.01416566502302885, -0.1187262013554573, -0.20636610686779022, -0.31494706869125366, -0.15256176888942719, -0.010083370842039585, 0.06449170410633087, 0.09812359511852264, 0.036031369119882584, 0.019888991490006447, -0.06083149462938309, -0.051956236362457275, -0.006554054096341133, 0.10423815995454788, 0.1358584314584732, 0.026777418330311775, 0.04743603244423866, -0.01808837056159973, -0.027951274067163467, 0.04413934051990509, 0.288871169090271, 0.05159751698374748, -0.1719309538602829, -0.15182659029960632, -0.17285732924938202, -0.1692538559436798, 0.05704004317522049, 0.1177404373884201], [0.10354585200548172, -0.12350870668888092, -0.07759993523359299, -0.03288903087377548, -0.1325681507587433, -0.1271379590034485, -0.23193414509296417, -0.41942355036735535, -0.41987180709838867, -0.2972795069217682, -0.4966637194156647, -0.1462453156709671, 0.09798736870288849, -0.0917908325791359, -0.18497012555599213, 0.1951121836900711, 0.008477158844470978, -0.11167967319488525, -0.3227882981300354, -0.5680292248725891, -0.5690987706184387, -0.39169883728027344, -0.13278138637542725, -0.2203773558139801, -0.0688876062631607, -0.104194775223732, 0.08469440042972565, -0.030840231105685234, 0.16079913079738617, 0.06658385694026947, -0.11289861053228378, -0.10186158120632172, -0.26759395003318787, -0.15827588737010956, -0.14336100220680237, -0.18681319057941437, -0.04254788160324097, -0.014124314300715923, -0.02529274672269821, 0.04772070795297623, 0.1977083683013916, 0.10769900679588318, 0.15098251402378082, 0.19689856469631195, 0.01625942252576351, -0.15206563472747803, 0.006038909312337637, -0.32141709327697754, -0.39913859963417053, -0.24310752749443054, -0.1970207244157791, -0.12816554307937622, 0.0022007578518241644, 0.1414981484413147, -0.007770948112010956, 0.1599450707435608, -0.043709829449653625, -0.04344804212450981, -0.1097639724612236, -0.1982489973306656, -0.13448789715766907, -0.00360195804387331, -0.2666517496109009, -0.13765697181224823, 0.023122461512684822, 0.13245733082294464, 0.08330981433391571, 0.0401543453335762, 0.1351574957370758, 0.23215840756893158, 0.2195453643798828, 0.1198723316192627, 0.07347077876329422, 0.045616451650857925, 0.07259513437747955, -0.041283875703811646, -0.19961051642894745, -0.33543866872787476, -0.005178392399102449, -0.0932430848479271, -0.042905211448669434, -0.004666999913752079, -0.03140933811664581, 0.015270612202584743, -0.149155393242836, -0.12227348983287811, -0.10202684253454208, -0.04831327870488167, -0.1578429937362671, -0.07832440733909607, -0.246337428689003, 0.023577045649290085, 0.15907616913318634, -0.03425602614879608, 0.007590218912810087, 0.044679298996925354, -0.020163677632808685, 0.26353681087493896, 0.24425415694713593, -0.010711702518165112, 0.11886473000049591, -0.08070115745067596, 0.03132234141230583, 0.053295232355594635, -0.07088233530521393, -0.26414135098457336, -0.14537914097309113, -0.11275292187929153, -0.1169307678937912, -0.011423791758716106, 0.10153809934854507, -0.04206228628754616, 0.0232524611055851, -0.07080099731683731, 0.07112452387809753, -0.06715688854455948, -0.06509098410606384, -0.044021107256412506, -0.02416345663368702, -0.05002531409263611, 0.024428067728877068, -0.08942312747240067, -0.10594076663255692, -0.05947252735495567, 0.02669670432806015, 0.06345942616462708, 0.09500612318515778, -0.004322845954447985, -0.024416238069534302, -0.03595997393131256, -0.03426474705338478, 0.09071052074432373, -0.02310028299689293, -0.10136197507381439, -0.012509331107139587, -0.17856334149837494, -0.1001998782157898, -0.13675318658351898, -0.05175578594207764, -0.09660708904266357, 0.05815639719367027, -0.020706430077552795, -0.024396345019340515, -0.020790234208106995, -0.11104843020439148, -0.14637647569179535, -0.03364482894539833, -0.04544513672590256, -0.036389365792274475, -0.13411839306354523, -0.034612834453582764, -0.059862978756427765, -0.11340651661157608, -0.04279234632849693, -0.028349105268716812, 0.14534920454025269, -0.19917690753936768, -0.11321411281824112, 0.003907657228410244, -0.11741457134485245, -0.2007370889186859, -0.11987032741308212, -0.0662834644317627, -0.2926813066005707, -0.1395709067583084, -0.027657562866806984, -0.17264710366725922, -0.0372907817363739, 0.0527137815952301, 0.03052940033376217, -0.15788118541240692, -0.0939595177769661, -0.022166352719068527, -0.04532700404524803, -0.15263612568378448, -0.011607497930526733, -0.02904839627444744, -0.0053795138373970985, 0.009644596837460995, -0.05479876697063446, -0.03163181617856026, -0.04163091257214546, -0.08170542865991592, -0.050749290734529495, -0.09465380012989044, -0.12254613637924194, 0.030675504356622696, -0.02882268838584423, -0.12706807255744934, -0.06964481621980667, -0.18253225088119507, -0.1413268744945526, -0.1687352955341339, -0.08889145404100418, -0.20368064939975739, -0.2864571213722229, 0.038233138620853424, 0.10039359331130981, -0.05488644912838936, -0.2049255520105362, 0.0708259865641594, 0.044985849410295486, -0.08580327033996582, -0.07486873865127563, -0.17853455245494843, 0.03332740068435669, -0.01941145397722721, -0.013227797113358974, -0.05134141817688942, -0.03451882302761078, 0.0062206946313381195, 0.062226250767707825, 0.020732173696160316, -0.061181776225566864, 0.06576482951641083, 0.036304883658885956, -0.12773644924163818, -0.08053635060787201, -0.08050303906202316, -0.10591940581798553, -0.3944413959980011, -0.2180706113576889, -0.24546568095684052, -0.20362816751003265, -0.057176463305950165, 0.010235256515443325, -0.012040777131915092, -0.17050911486148834, 0.024208540096879005, -0.0035776388831436634, -0.03209999203681946, 0.13119620084762573, -0.18002811074256897, -0.04482823610305786, 0.014519434422254562, -0.06441979110240936, -0.07698151469230652, -0.08892171829938889, 0.01505170576274395, -0.07997103035449982, 0.0335550457239151, -0.24475884437561035, -0.04312548786401749, -0.03746376559138298, -0.13884501159191132, 0.022235341370105743, -0.21362097561359406, -0.03475385531783104, -0.07800378650426865, -0.051664505153894424, -0.291464239358902, -0.007135636173188686, -0.13414624333381653, -0.002076180651783943, -0.12192024290561676, -0.1833878606557846, 0.03373844176530838, -0.03144103288650513, 0.11085125803947449, 0.049475379288196564, -0.1263219118118286, 0.04659303277730942, -0.12934312224388123, -0.08581110090017319, -0.19143542647361755, 0.002901769010350108, -0.05839553847908974, 0.06435836106538773, -0.036660268902778625, -0.23306234180927277, 0.0014900658279657364, 0.013271991163492203, 0.03441060706973076, -0.02836032584309578, -0.08442208915948868, -0.07342024147510529, -0.27456697821617126, -0.020358895882964134, -0.14450949430465698, 0.15916238725185394, -0.029593322426080704, -0.010945724323391914, -0.21375519037246704, 0.012323405593633652, -0.0007535643526352942, 0.00586749566718936, 0.02952413074672222, 0.10587786883115768, 0.0003890151856467128, -0.018568597733974457, 0.004627109505236149, -0.07888399064540863, -0.03114369697868824, -0.0559530146420002, 0.12959180772304535, -0.020638102665543556, 0.0015437861438840628, -0.09612198919057846, -0.13884742558002472, -0.06371904164552689, 0.03366284817457199, -0.09052470326423645, -0.1603701114654541, -0.16306112706661224, -0.059133388102054596, -0.0649537742137909, -0.17742718756198883, -0.019172681495547295, -0.18967144191265106, -0.2661411464214325, -0.25695672631263733, 0.003539958270266652, -0.007700569462031126, -0.03762670233845711, -0.045002732425928116, 0.03974631428718567, -0.0053877574391663074, -0.052280791103839874, 0.019426338374614716, -0.05937111750245094, -0.08978720754384995, 0.03946445509791374, 0.009194833226501942, 0.03339148312807083, -0.01609770394861698, -0.058176249265670776, -0.08715198189020157, 0.2268652617931366, 0.05362275615334511, -0.012993567623198032, -0.11517514288425446, -0.04707964509725571, -0.10809224843978882, -0.06887777149677277, 0.11535409837961197, -0.1506785750389099, -0.29485633969306946, -0.188380166888237, -0.26030510663986206, -0.07539783418178558, 0.006602515932172537, -0.08292946219444275, 0.03561490774154663, 0.04601337015628815, 0.061193451285362244, -0.030793435871601105, -0.12707889080047607, 0.004803159739822149, -0.18390406668186188, -0.08122319728136063, 0.044240351766347885, -0.018351025879383087, -0.09156055748462677, -0.0032840280327945948, -0.19520783424377441, 0.007864001207053661, 0.06698289513587952, 0.049042411148548126, -0.06714525073766708, -0.03513156250119209, -0.007119969464838505, 0.02323494479060173, 0.07994642853736877, 0.02798479050397873, -0.2045268714427948, -0.22287575900554657, -0.20082178711891174, -0.09701676666736603, 0.07618194818496704, 0.014822771772742271, -0.061416905373334885, -0.026371486485004425, 0.022190500050783157, -0.028985941782593727, 0.023893212899565697, -0.05839494615793228, -0.09566338360309601, 0.09297382831573486, 0.08805953711271286, -0.03489192947745323, 0.013587484136223793, -0.05596228688955307, 0.01116223819553852, 0.12088669091463089, 0.12873616814613342, -0.10690918564796448, -0.07271270453929901, -0.051557790488004684, -0.003912299871444702, -0.018081609159708023, 0.03343140333890915, 0.004031796474009752, 0.14410312473773956, -0.16045424342155457, -0.15796440839767456, -0.11621865630149841, -0.038074057549238205, -0.12803107500076294, -0.08306951075792313, -0.0046136099845170975, 0.029465220868587494, -0.03723181039094925, 0.05822920799255371, -0.019021831452846527, -0.0113313477486372, 0.13095605373382568, 0.05409986898303032, 0.08932650834321976, -0.014912284910678864, -0.04967069625854492, 0.13692766427993774, 0.10937194526195526, 0.09332948178052902, -0.06719791144132614, -0.05218644067645073, 0.044137030839920044, 0.06313255429267883, -0.06604626774787903, -0.06250753253698349, 0.06593146175146103, 0.03489000350236893, 0.08574288338422775, 0.03513972833752632, 0.036490656435489655, -0.06460034102201462, 0.0057073174975812435, 0.07443457096815109, 0.12955360114574432, 0.1539609432220459, 0.042115021497011185, -0.045025814324617386, 0.032932233065366745, -0.03345082700252533, 0.04747049883008003, 0.0913744568824768, -0.002155828522518277, -0.09349056333303452, -0.1200750544667244, 0.06960888206958771, 0.12823143601417542, 0.1441376954317093, 0.16840322315692902, 0.032467473298311234, 0.002273696707561612, -0.01179517898708582, -0.02951054833829403, -0.016724564135074615, 0.1578511744737625, 0.10412074625492096, 0.04943251237273216, -0.09257017821073532, 0.09835626184940338, -0.0037522492930293083, -0.04932733625173569, -0.002087524626404047, 0.03903461992740631, 0.15643292665481567, 0.08164925873279572, 0.04773411154747009, -0.013959958218038082, -0.05027904734015465, 0.09028974920511246, 0.03580070286989212, -0.012339084409177303, 0.03502419590950012, 0.0333365835249424, 0.016720345243811607, 0.08992571383714676, 0.1474570631980896, 0.020250827074050903, -0.028164755553007126, 0.05124151334166527, 0.11034440249204636, 0.09932439774274826, 0.019231118261814117, -0.0670204907655716, 0.1806696653366089, 0.11316317319869995, -0.09212387353181839, -0.09665869921445847, -0.03466923162341118, -0.10822036117315292, 0.014024858362972736, 0.0948309376835823, 0.12428369373083115, -0.02990679256618023, -0.06618548929691315, 0.044509295374155045, 0.02085840329527855, 0.052985019981861115, 0.09424635022878647, 0.013033777475357056, -0.0339258648455143, 0.055967677384614944, -0.00857399683445692, 0.07398533076047897, 0.12630106508731842, 0.01906280219554901, 0.03953786939382553, -0.04347817972302437, -0.03166409954428673, -0.005406354088336229, -0.015585065819323063, -0.05933419242501259, -0.04128769040107727, -0.1633700579404831, -0.09725376218557358, -0.004927353467792273, -0.0011552013456821442, 0.031438011676073074, -0.013775811530649662, 0.0677407756447792, 0.07856355607509613, -0.009772013872861862, -0.08430416136980057, -0.05733780190348625, 0.03738148882985115, 0.16654765605926514, 0.14352922141551971, -0.05443340539932251, -0.008515343070030212, -0.06690260022878647, -0.06977834552526474, 0.006048953160643578, 0.07380406558513641, -0.0508938804268837, -0.09749289602041245, -0.05535348504781723, 0.009671750478446484, -0.10576008260250092, -0.13925042748451233, -0.09457488358020782, -0.04036882892251015, 0.03288218006491661, -0.020577790215611458, -0.06021362170577049, 0.037243932485580444, -0.015374421142041683, -0.03506249189376831, 0.08004438132047653, -0.017228813841938972, -0.07251670211553574, -0.11805345118045807, 0.04964586719870567, -0.05478476360440254, 0.0739835724234581, 0.1473100185394287, 0.030711477622389793, -0.0060192798264324665, -0.03482825309038162, -0.07396864891052246, 0.0039001849945634604, 0.0659337043762207, -0.06234065443277359, 0.016182061284780502, -0.04851534962654114, -0.03135028854012489, -0.10083238780498505, -0.14021869003772736, 0.14450114965438843, 0.11043807864189148, -0.16584329307079315, -0.04125790670514107, 0.010187109932303429, 0.09234745800495148, 0.03558341786265373, 0.1026989072561264, 0.06730631738901138, 0.07360874861478806, -0.08826842904090881, 0.028995124623179436, 0.06386801600456238, -0.022647690027952194, 0.023625042289495468, 0.10007785260677338, -0.09267870336771011, 0.032548561692237854, 0.0679703876376152, -0.01626741886138916, 0.04248704016208649, 0.03514670580625534, -0.019975651055574417, -0.06764181703329086, -0.06028906628489494, -0.07107654958963394, -0.027632437646389008, -0.057309336960315704, 0.006547899916768074, -0.1075265035033226, -0.03923661261796951, -0.06272890418767929, -0.06230891868472099, -0.1435670107603073, 0.024289164692163467, 0.038671284914016724, 0.027607470750808716, -0.03953531011939049, -0.1284288614988327, -0.028236180543899536, -0.06549926847219467, -0.060489803552627563, -0.03263155370950699, 0.07439766824245453, -0.03556319698691368, -0.01630621775984764, -0.03576715663075447, -0.07301242649555206, -0.10453484952449799, 0.030010465532541275, 0.06328098475933075, -0.022477518767118454, 0.09115049242973328, -0.12211489677429199, -0.09539180248975754, -0.10147051513195038, 0.061687108129262924, -0.027397017925977707, -0.12981636822223663, 0.009195775724947453, -0.05706166848540306, -0.08843407779932022, -0.028813371434807777, 0.04771963879466057, -0.011843621730804443, 0.034299690276384354, -0.04611726850271225, -0.0366264246404171, 0.02575729787349701, -0.04935839772224426, 0.03491147980093956, 0.14580038189888, 0.010021171532571316, 0.07769101858139038, 0.07242454588413239, 0.018018387258052826, -0.07483174651861191, 0.10407869517803192, -0.0022478087339550257, 0.04436331242322922, 0.05244271084666252, -0.07387886196374893, -0.11352688074111938, -0.005627722479403019, 0.015868935734033585, -0.18128937482833862, -0.22024908661842346, -0.227842777967453, -0.13511110842227936, -0.07750926166772842, 0.00846942886710167, 0.06404751539230347, 0.009012481197714806, -0.09579252451658249, 0.020258957520127296, -0.06189096346497536, -0.04938216879963875, 0.13742272555828094, 0.06488259136676788, 0.1067151129245758, 0.059938833117485046, 0.010096785612404346, 0.03136293217539787, -0.013159414753317833, -0.11004255712032318, 0.12573227286338806, -0.06804706156253815, -0.1623489111661911, -0.12593765556812286, -0.06241437792778015, -0.19958645105361938, -0.00863122008740902, 0.08433722704648972, -0.14783824980258942, -0.17584805190563202, -0.12708064913749695, -0.1880868822336197, -0.17179322242736816, -0.11739107966423035, -0.054343052208423615, 0.0930556058883667, 0.09480560570955276, 0.06170065328478813, 0.0016142033273354173, -0.00023230977240018547, -0.13255716860294342, -0.04821236804127693, 0.06975060701370239, 0.08404648303985596, -0.02357116900384426, 0.03474710136651993, -0.0186803936958313, 0.0300888791680336, 0.07475696504116058, 0.08926822245121002, -0.01699191890656948, -0.10459825396537781, -0.06262965500354767, -0.14110130071640015, -0.21965821087360382, -0.13385581970214844, -0.08310439437627792, -0.23497699201107025, -0.12365204095840454, 0.040940240025520325, -0.02231331542134285, 0.0014699797611683607, 0.023377129808068275, 0.06415973603725433, -0.0578542985022068, -0.013644497841596603, -0.04280625283718109, -0.017276419326663017, -0.05035471171140671, -0.02550743706524372, 0.017987824976444244, -0.0830843597650528, 0.02840832993388176, 0.05399308353662491, -0.030951788648962975, 0.07605096697807312, 0.012978990562260151, 0.17089718580245972, -0.059122685343027115, 0.051009781658649445, -0.05315898731350899, -0.17882144451141357, -0.21570859849452972, -0.2484111487865448, -0.142304927110672, -0.059796012938022614, -0.15218998491764069, -0.020245976746082306, -0.04379190504550934, 0.0724579393863678, 0.00868924055248499, 0.05677898973226547, -0.19596754014492035, -0.12459484487771988, 4.13207926612813e-05, -0.07441411167383194, -0.07825303077697754, -0.1212955117225647, -0.017411118373274803, -0.10500573366880417, -0.023208443075418472, 0.02843720093369484, 0.019490381702780724, -0.19519945979118347, -0.007869677618145943, 0.16230374574661255, 0.062229741364717484, 0.02145428955554962, -0.025761032477021217, -0.21149873733520508, -0.09969709813594818, -0.023908285424113274, 0.004656344652175903, -0.008462348952889442, 0.14414328336715698, 0.16048452258110046, -0.0920185074210167, 0.12869852781295776, 0.24576586484909058, 0.3714408278465271, -0.14000682532787323, -0.19383129477500916, -0.08456245064735413, -0.170310840010643, -0.11011186987161636, 0.19020265340805054, 0.13060419261455536, -0.16254664957523346, -0.04279986023902893, -0.12878024578094482, -0.19148288667201996, -0.20302538573741913, 0.006537863053381443, 0.24096934497356415, 0.06904446333646774, 0.029297811910510063, -0.03905423730611801, -0.06120887026190758, -0.005940672475844622, 0.01444045640528202], [0.029702577739953995, -0.022235164418816566, -0.010814497247338295, 0.06004779413342476, 0.18878944218158722, 0.18907058238983154, 0.09256011992692947, 0.2124103456735611, 0.2520952820777893, 0.15684254467487335, -0.10450012236833572, 0.1270146667957306, 0.1967763900756836, -0.013927889056503773, 0.07540008425712585, 0.12989643216133118, 0.09008824825286865, -0.26549169421195984, -0.15904875099658966, 0.050529275089502335, -0.022067930549383163, 0.0750608891248703, 0.03795912489295006, 0.2974682152271271, 0.21300248801708221, 0.1498132050037384, 0.12211170047521591, -0.052720438688993454, -0.1078147143125534, -0.12047145515680313, -0.08798803389072418, -0.15020021796226501, 0.351958304643631, 0.29721710085868835, 0.07943638414144516, 0.025643549859523773, 0.004982070066034794, -0.0748102068901062, -0.2677544355392456, -0.20930162072181702, 0.011177361011505127, 0.09883029013872147, 0.020461855456233025, -0.0743812769651413, -0.1734718680381775, -0.27201592922210693, -0.28413456678390503, -0.11993441730737686, -0.10685651004314423, 0.1168728768825531, 0.0027185697108507156, 0.10159572213888168, 0.08848314732313156, -0.049257390201091766, 0.10372547060251236, -0.04075624793767929, 0.3986717164516449, 0.3793240189552307, 0.08831354230642319, -0.076027512550354, 0.27115166187286377, 0.12565463781356812, 0.15632961690425873, 0.009238514117896557, -0.021556060761213303, -0.028359390795230865, -0.02223173715174198, 0.025541342794895172, -0.0357181690633297, -0.012955127283930779, 0.17712801694869995, 0.0015814946964383125, -0.027743883430957794, -0.08855757862329483, 0.00974010769277811, 0.03856534883379936, -0.06248868256807327, -0.055339910089969635, -0.0457100011408329, -0.0014552191132679582, -0.09352176636457443, -0.01175740547478199, 0.10683560371398926, 0.07807657122612, 0.6008290648460388, 0.2448856234550476, 0.011594852432608604, 0.11207985877990723, 0.059706080704927444, -0.052265714854002, 0.0700007975101471, 0.024273976683616638, 0.09196991473436356, -0.06634368002414703, -0.1082325354218483, -0.2339528650045395, -0.01378452405333519, 0.06563854217529297, 0.04623601585626602, 0.07523845881223679, -0.013157687149941921, -0.03752787038683891, -0.11582404375076294, -0.02828795276582241, 0.005241424310952425, 0.07723521441221237, -0.05680852755904198, -0.09756550937891006, -0.025388190522789955, 0.06245364248752594, 0.09695494920015335, 0.37545299530029297, 0.25153812766075134, 0.1781318336725235, 0.010455213487148285, 0.16497978568077087, 0.06442855298519135, 0.10658302158117294, 0.15513785183429718, 0.0893959328532219, 0.07408979535102844, -0.07311923056840897, -0.05058518052101135, -0.03146781399846077, -0.03963463380932808, 0.0015379753895103931, 0.06773912161588669, -0.02702256478369236, -0.05197850614786148, -0.13352002203464508, -0.08240268379449844, -0.047776371240615845, 0.049254827201366425, -0.01692882925271988, 0.04075099155306816, -0.12571612000465393, -0.12510062754154205, 0.023149333894252777, 0.35048598051071167, 0.1700572818517685, 0.13421429693698883, 0.19135873019695282, 0.06359279155731201, 0.08504163473844528, -0.020505769178271294, 0.07232699543237686, 0.04182559996843338, 0.1210949569940567, -0.03587525710463524, -0.0055554695427417755, -0.07393977791070938, -0.04425862431526184, -0.12178879231214523, -0.0432535782456398, -0.031831905245780945, -0.08874405175447464, -0.09303037077188492, -0.04812939465045929, -0.09651307016611099, -0.10875768214464188, 0.04973716661334038, -0.020838391035795212, 0.06729933619499207, -0.046632226556539536, -0.03779217228293419, 0.1513185054063797, 0.3460378348827362, 0.17080700397491455, 0.021632254123687744, -0.11054554581642151, -0.06897861510515213, 0.22379353642463684, 0.13101224601268768, 0.07504288107156754, 0.00425302516669035, 0.058378804475069046, 0.0397074855864048, -0.026210041716694832, 0.04941939562559128, 0.01670847274363041, -0.015482385642826557, -0.04676296189427376, 0.10316398739814758, -0.072078637778759, -0.08623223751783371, -0.06194104254245758, -0.046015750616788864, -0.02941955253481865, 0.02137739397585392, -0.0228433795273304, 0.014947800897061825, 0.013815589249134064, 0.14455845952033997, 0.05007534474134445, 0.10862813144922256, 0.09757210314273834, 0.07913737744092941, -0.21327726542949677, -0.009098385460674763, 0.19068479537963867, 0.1345657855272293, 0.06716048717498779, -0.009272567927837372, 0.11432501673698425, 0.05453117936849594, 0.02851015515625477, 0.005884699523448944, 0.06940674036741257, 0.04339882358908653, -0.0024433601647615433, 0.16324172914028168, -0.006804333534091711, 0.058639977127313614, 0.011810822412371635, -0.03490927070379257, -0.0033367828000336885, 0.09302765130996704, 0.04061329737305641, 0.0353565588593483, 0.08990766108036041, 0.02037900686264038, -0.06244400143623352, 0.16464672982692719, 0.2238113433122635, 0.14707890152931213, -0.04812462627887726, 0.07761763036251068, 0.22084471583366394, 0.21164420247077942, 0.08266596496105194, 0.1323973834514618, 0.15358346700668335, 0.14185474812984467, -0.02031770534813404, -0.0031231772154569626, 0.03622382879257202, -0.03892740234732628, 0.12170539051294327, 0.00971384346485138, -0.0003522149345371872, 0.023557960987091064, 0.10011648386716843, 0.054111260920763016, -0.03562331199645996, 0.03802363574504852, 0.1355171948671341, -0.004469515755772591, 0.04744233936071396, 0.0021696588955819607, -7.584466220578179e-05, 0.08753065764904022, 0.5110086798667908, 0.09997449815273285, 0.1337953507900238, -0.030136171728372574, 0.21618770062923431, 0.09024390578269958, -0.02216786891222, 0.14642539620399475, 0.18291988968849182, 0.06962248682975769, -0.023659734055399895, -0.001524260500445962, 0.07665209472179413, -0.018054602667689323, 0.006747910752892494, -0.020887697115540504, 0.007813433185219765, -0.09904439747333527, 0.007829389534890652, -0.1036413311958313, 0.0033218087628483772, 0.152470201253891, 0.13175007700920105, 0.005591865628957748, 0.10306785255670547, 0.06743297725915909, 0.08169040828943253, 0.20675471425056458, 0.32562124729156494, 0.30606481432914734, 0.0890658050775528, 0.13855522871017456, 0.22744514048099518, 0.13449090719223022, -0.035148538649082184, 0.029993262141942978, 0.20184263586997986, 0.0809236466884613, -0.03690200671553612, 0.05215876176953316, 0.1579594612121582, -0.032830674201250076, 0.10189993679523468, 0.04893597587943077, -0.11358171701431274, -0.1429734081029892, -0.08367504924535751, -0.1433524489402771, -0.1525074690580368, 0.04584857448935509, 0.07325942069292068, -0.05528289079666138, -0.012467720545828342, 0.08315692096948624, 0.09771722555160522, 0.1609487235546112, 0.3131867051124573, 0.23154139518737793, 0.1551026701927185, 0.11189776659011841, 0.10487103462219238, 0.04997380077838898, 0.07055534422397614, 0.14194485545158386, 0.07484991103410721, -0.006117259617894888, -0.062422510236501694, -0.2542506158351898, 0.05714426562190056, 0.04949408769607544, 0.07215607166290283, 0.0852404460310936, -0.08463314175605774, -0.10820551961660385, -0.08615866303443909, -0.11375691741704941, -0.10990431159734726, 0.015104464255273342, 0.028884993866086006, 0.1090487465262413, 0.06516262143850327, 0.09830474853515625, 0.10420632362365723, 0.06575804948806763, 0.2725007236003876, -0.06338367611169815, 0.1064612865447998, 0.11638212949037552, 0.15602077543735504, 0.03376300632953644, -0.08202256262302399, 0.007817993871867657, 0.08644139021635056, -0.05080479755997658, -0.14604836702346802, -0.02320929989218712, -0.10694926232099533, -0.0012212736764922738, 0.009162666276097298, 0.11218385398387909, -0.04610840603709221, -0.11764244735240936, -0.10903823375701904, 0.011391710489988327, -0.09566931426525116, -0.08998469263315201, 0.05764063820242882, -0.049433737993240356, -0.09071587026119232, 0.02955390326678753, 0.032293304800987244, 0.10873562842607498, 0.18946407735347748, 0.3220241367816925, 0.004244132898747921, 0.03850904479622841, -0.03328561782836914, 0.020863818004727364, -0.08401989936828613, 0.06077375262975693, -0.09679533541202545, 0.03811992332339287, 0.03012295812368393, 0.018341610208153725, 0.028618816286325455, 0.1027192696928978, 0.0743359699845314, 0.011696466244757175, -0.00973543617874384, -0.04201693832874298, -0.11555559933185577, -0.06795919686555862, -0.17650875449180603, -0.0628262311220169, 0.0949643924832344, -0.005115761421620846, 0.05493053048849106, -0.04226306453347206, 0.1055292934179306, 0.09738929569721222, 0.1293334811925888, 0.10073260962963104, 0.03736928105354309, -0.1832473874092102, -0.12985841929912567, 0.0488184355199337, -0.05315680801868439, -0.07920441031455994, -0.03517378494143486, -0.04389782249927521, -0.040972355753183365, -0.16059322655200958, -0.03439588472247124, -0.06744523346424103, 0.008977766148746014, 0.018825523555278778, 0.009906964376568794, -0.05801129713654518, -0.22592222690582275, -0.12448982894420624, -0.06624719500541687, -0.06054317578673363, -0.002808240707963705, 0.029885726049542427, -0.08226221054792404, 0.022551516070961952, 0.018821876496076584, 0.1272755265235901, 0.13435815274715424, -0.10332049429416656, -0.06730329245328903, -0.15842463076114655, -0.07796090096235275, -0.06467882543802261, -0.038039714097976685, 0.012202550657093525, 0.09409034997224808, 0.007061620242893696, -0.10461077094078064, 0.024732472375035286, 0.06455240398645401, -0.06295280158519745, -0.01558578759431839, 0.08182550966739655, 0.06464605033397675, -0.061405930668115616, -0.10092765837907791, -0.10030649602413177, -0.09552325308322906, -0.06826712191104889, 0.10659441351890564, 0.039497628808021545, 0.021801020950078964, 0.10576103627681732, 0.13568882644176483, 0.02897617407143116, 0.13136173784732819, -0.1024051085114479, -0.17471860349178314, -0.11996997892856598, -0.14256802201271057, -0.019882965832948685, 0.018647197633981705, -0.09113074839115143, 0.053997159004211426, -0.10555803030729294, -0.07802293449640274, -0.08254797756671906, 0.023793525993824005, -0.06289384514093399, 0.06617940962314606, 0.0303017720580101, -0.044647205621004105, -0.10795329511165619, -0.16535168886184692, -0.06784496456384659, -0.01901075430214405, -0.012912620790302753, 0.08920727670192719, -0.025652896612882614, 0.014548913575708866, 0.018242787569761276, 0.02240275777876377, 0.10359404236078262, -0.043200768530368805, -0.16326487064361572, -0.16694878041744232, -0.2399899959564209, -0.27479860186576843, -0.05673738569021225, -0.05344688892364502, 0.07248935848474503, 0.1260281354188919, -0.03474203124642372, -0.020758716389536858, -0.15533453226089478, -0.09446380287408829, 0.014568391256034374, 0.09435830265283585, 0.135848730802536, -0.021186836063861847, -0.03667091950774193, -0.18188396096229553, -0.08056455850601196, -0.06875365972518921, -0.10701470077037811, 0.03134450688958168, -0.016696590930223465, -0.018485883250832558, 0.052575018256902695, 0.09011991322040558, 0.0076746526174247265, -0.1063680574297905, -0.11272042244672775, 0.04171216860413551, -0.19467657804489136, -0.1280745267868042, -0.03175747022032738, 0.013007347472012043, 0.06865474581718445, 0.06065528467297554, -0.09831653535366058, -0.05509469285607338, -0.06186540424823761, 0.0534813366830349, 0.07973071187734604, 0.03449892997741699, 0.05815432593226433, 0.09322657436132431, -0.07745230942964554, 0.020985368639230728, -0.0358540304005146, -0.09424319863319397, -0.04474896192550659, 0.07405401766300201, 0.04497081786394119, -0.09159982949495316, 0.012845007702708244, 0.06146743521094322, -0.039818402379751205, -0.05040557682514191, -0.041351258754730225, -0.006805091630667448, -0.20487821102142334, -0.13501308858394623, 0.09939426928758621, 0.007293575908988714, 0.07317046821117401, 0.13280457258224487, -0.03058110550045967, 0.02876492217183113, 0.01675030030310154, 0.012088022194802761, 0.0702613964676857, 0.0505603589117527, 0.04738057032227516, -0.028758956119418144, 0.022511348128318787, -0.10903360694646835, -0.0001986293209483847, 0.08870100975036621, 0.0075268191285431385, 0.06462404131889343, 0.023867590352892876, -0.024182550609111786, -0.09992438554763794, 0.07232151180505753, -0.036748871207237244, 0.030766772106289864, 0.0028156398329883814, -0.04476654902100563, -0.08877188712358475, 0.023103294894099236, 0.08081638067960739, -0.043305858969688416, 0.14011545479297638, 0.0991419106721878, -0.10248696058988571, -0.1304478645324707, -0.1786232441663742, 0.014260969124734402, -0.039220113307237625, 0.1540069580078125, 0.03275750204920769, 0.02639555186033249, -0.051470693200826645, -0.08293991535902023, -0.08137526363134384, -0.017693422734737396, -0.04828936979174614, 0.16684819757938385, 0.03802284970879555, -0.014381619170308113, 0.028975440189242363, 0.13699612021446228, 0.026293961331248283, 0.022611970081925392, -0.018059005960822105, -0.01160909328609705, -0.13778388500213623, -0.08864455670118332, -0.021029358729720116, -0.16362133622169495, 0.07147099077701569, 0.14007465541362762, -0.09204746037721634, -0.03413274139165878, -0.1117042526602745, -0.06751871854066849, -0.0591336227953434, 0.050866905599832535, 0.154657781124115, 0.03303871303796768, -0.1576540470123291, -0.04538313299417496, 0.06104566901922226, -0.06157759949564934, -0.00020874464826192707, -0.023411663249135017, -0.06921862810850143, -0.14760355651378632, -0.03742988780140877, -0.08931250870227814, -0.024237757548689842, 0.008543184958398342, 0.055142901837825775, -0.012087058275938034, 0.05746769532561302, -0.12621451914310455, -0.0890815258026123, -0.025637993589043617, 0.08926820009946823, 0.11705061793327332, 0.007695040665566921, -0.03465820103883743, -0.15394118428230286, -0.0646623820066452, -0.045315757393836975, 0.12023357301950455, 0.012804551050066948, -0.05922918766736984, -0.09002577513456345, -0.0810275748372078, 0.028468439355492592, -0.005362870171666145, -0.04940381646156311, 0.07576559484004974, 0.1186356395483017, -0.07204055786132812, -0.05534793436527252, 0.008314304053783417, 0.011868479661643505, 0.14535954594612122, 0.0029223335441201925, 0.04062965512275696, 0.1580585241317749, -0.09983465820550919, -0.14090165495872498, -0.14675071835517883, 0.14072149991989136, 0.22695788741111755, -0.09470534324645996, -0.00792175903916359, -0.24569673836231232, -0.14966103434562683, 0.05614081770181656, 0.06562034040689468, 0.17409648001194, 0.006384621374309063, -0.058150410652160645, -0.12079230695962906, -0.13347434997558594, 0.08675933629274368, 0.08318009972572327, 0.13458037376403809, 0.03062971867620945, -0.0954403355717659, -0.038299065083265305, 0.05995723977684975, -0.047931719571352005, 0.31386598944664, -0.09021129459142685, -0.05301795154809952, 0.19185380637645721, -0.17476962506771088, -0.17838063836097717, -0.08621997386217117, 0.07930352538824081, 0.16129279136657715, 0.004898854065686464, -0.09315028041601181, -0.19766297936439514, -0.05177648365497589, -0.09017036110162735, 0.05995355546474457, 0.126241996884346, 0.05706217139959335, -0.01798936352133751, -0.0008566564065404236, -0.031728990375995636, -0.04230258986353874, 0.05824567750096321, 0.05580310523509979, 0.043176401406526566, -0.03527967631816864, -0.2358686923980713, -0.036804113537073135, -0.0017896171193569899, 0.17258185148239136, 0.06970175355672836, 0.20221669971942902, 0.07277318090200424, 0.0504678450524807, -0.2819245755672455, -0.04149385914206505, 0.0722050666809082, -0.08935309201478958, -0.08973009884357452, -0.057022687047719955, -0.1273079216480255, -0.09346158802509308, -0.04368337243795395, 0.12823231518268585, 0.07958753407001495, -0.030772309750318527, -0.07773753255605698, -0.09862472116947174, -0.05821102112531662, -0.08496097475290298, -0.15846005082130432, 0.14975886046886444, 0.1080373227596283, -0.07258684188127518, -0.2517247498035431, 0.09882327914237976, 0.06688643991947174, 0.17841020226478577, 0.0421549454331398, 0.15235069394111633, 0.2240726500749588, 0.18261359632015228, -0.0005874166381545365, -0.08457069098949432, 0.02860012836754322, -0.09293805062770844, -0.33507147431373596, -0.14217188954353333, -0.08229166269302368, -0.011232956312596798, -0.08011519908905029, 0.1641729325056076, 0.20515426993370056, 0.0052038258872926235, -0.10594957321882248, -0.046782102435827255, -0.12222888320684433, -0.11562032997608185, -0.25186577439308167, 0.07586711645126343, 0.047458432614803314, -0.06981892138719559, 0.06589626520872116, 0.15578021109104156, 0.24032166600227356, 0.10351365804672241, 0.1288580745458603, 0.04148923605680466, -0.121659055352211, 0.0244247168302536, 0.03471443057060242, -0.06832569092512131, 0.06834986805915833, 0.0025831277016550303, -0.41987088322639465, -0.23418982326984406, -0.2640273869037628, 0.012558040209114552, 0.17523479461669922, 0.3114520311355591, 0.11602333188056946, 0.2663806974887848, 0.14253342151641846, -0.004143439698964357, -0.033949971199035645, -0.3271661102771759, -0.16854892671108246, -0.025875579565763474, 0.11005197465419769, -0.18017347157001495, -0.12443498522043228, -0.23118790984153748, 0.016025520861148834, 0.035704370588064194], [-0.11705459654331207, -0.03888818621635437, -0.1239224448800087, -0.12772171199321747, 0.014499194920063019, 0.010308166034519672, -0.1766502410173416, -0.1362527310848236, 0.18712779879570007, -0.15187112987041473, -0.14069074392318726, -0.03070664033293724, 0.24191565811634064, 0.12181559205055237, 0.13581354916095734, 0.23422329127788544, 0.05245903506875038, -0.20753850042819977, 0.14755815267562866, 0.15197403728961945, 0.11978808045387268, -0.24474523961544037, 0.05738081783056259, 0.1134052500128746, 0.22217494249343872, -0.0023375428281724453, 0.07408864796161652, 0.07163120061159134, 0.006037681829184294, 0.08292759209871292, -0.016515783965587616, -0.11548841744661331, -0.017171727493405342, -0.1441040337085724, -0.047469012439250946, -0.12485059350728989, -0.2015731781721115, -0.577465832233429, -0.2935180068016052, -0.0983414426445961, 0.22073355317115784, 0.15949954092502594, 0.2432662695646286, 0.23532675206661224, 0.08441943675279617, -0.27639245986938477, -0.3399243652820587, -0.23477186262607574, -0.0772736668586731, -0.23533432185649872, -0.4034979045391083, -0.24471509456634521, 0.02375328727066517, 0.004185371566563845, 0.06536436080932617, 0.0884796604514122, -0.212577223777771, -0.09777723252773285, -0.08438806980848312, -0.047955919057130814, -0.2315918505191803, -0.2697409987449646, -0.07745643705129623, -0.272918701171875, -0.13264380395412445, -0.020359834656119347, 0.03133275359869003, 0.11159493774175644, 0.06604049354791641, 0.3339453637599945, 0.2712404727935791, 0.3357160687446594, 0.056970298290252686, 0.01875375583767891, -0.017744598910212517, 0.041609134525060654, -0.1276443749666214, -0.27461761236190796, -0.14625284075737, -0.1652790904045105, 0.07347511500120163, -0.010783936828374863, -0.11760593205690384, -0.21583504974842072, -0.2760623097419739, -0.07385002076625824, -0.1488702893257141, -0.07752084732055664, -0.22343970835208893, -0.1760193258523941, -0.22817032039165497, 0.15472464263439178, 0.18000809848308563, 0.013015608303248882, -0.02616785280406475, -0.02345232665538788, -0.0269511416554451, 0.15481168031692505, 0.22976574301719666, 0.14062732458114624, 0.007799644488841295, -0.023642512038350105, 0.12767858803272247, 0.2107066810131073, 0.2468634396791458, -0.08996669203042984, -0.05506356805562973, -0.1695646345615387, 0.10248304903507233, 0.1253865510225296, -0.054444845765829086, -0.09273260086774826, -0.29401782155036926, -0.09550569951534271, -0.1734849214553833, -0.26332056522369385, -0.19820140302181244, -0.23600652813911438, 0.044004835188388824, 0.1261386275291443, 0.03469498082995415, -0.10346478968858719, -0.05643315985798836, 0.015312325209379196, 0.05541947856545448, 0.15616375207901, 0.2051006555557251, -0.04241250455379486, 0.03402550145983696, -0.1372552514076233, -0.10387665778398514, 0.04246525093913078, 0.05301627516746521, 0.028779737651348114, -0.05633159354329109, -0.09465748071670532, 0.132159024477005, 0.19435206055641174, 0.07428563386201859, -0.17597119510173798, -0.11703065037727356, -0.08596275001764297, -0.15278148651123047, -0.4326832890510559, -0.10449697077274323, -0.15055595338344574, 0.041000109165906906, 0.016173308715224266, -0.08307857811450958, 0.023101314902305603, -0.13916438817977905, 0.05024479329586029, -0.0748903751373291, 0.09438460320234299, 0.09173966199159622, -0.03416600078344345, 0.06472120434045792, -0.1456848531961441, 0.002334806602448225, 0.015569858253002167, -0.023739993572235107, -0.02989683300256729, 0.08441443741321564, -0.211434006690979, 0.07378900796175003, 0.2897763252258301, 0.1958208531141281, -0.2081553190946579, -0.10109172016382217, -0.12300271540880203, -0.2745257318019867, -0.43486547470092773, -0.21295839548110962, -0.02613317407667637, -0.01592540368437767, -0.10372856259346008, -0.0438663549721241, -0.027495186775922775, 0.007678717374801636, -0.08388166129589081, -0.12149335443973541, 0.05379069596529007, 0.12869490683078766, -0.030808551236987114, -0.09584629535675049, -0.07751215249300003, -0.09297580271959305, -0.05131249129772186, 0.0017628425266593695, 0.12376447767019272, -0.07415339350700378, -0.03737153857946396, 0.08084254711866379, 0.19615808129310608, -0.06990887969732285, -0.07868227362632751, -0.18280956149101257, -0.1880422681570053, -0.4422924518585205, -0.21467286348342896, 0.06617972254753113, -0.047301169484853745, -0.09948967397212982, -0.09033848345279694, -0.08562860637903214, -0.16125480830669403, 0.020526651293039322, 0.0340244360268116, -0.09056024998426437, 0.011806942522525787, 0.1453624814748764, -0.12889154255390167, -0.08893276005983353, -0.11046881228685379, -0.06268010288476944, -0.1960618495941162, -0.18681715428829193, -0.04658638685941696, 0.028099989518523216, -0.0032626385800540447, 0.05869874358177185, -0.03542594611644745, -0.05543668195605278, -0.3416110575199127, -0.3294481933116913, -0.3648650646209717, -0.2774796783924103, 0.0544518306851387, -0.05262681841850281, -0.09660259634256363, -0.030048493295907974, 0.003448637668043375, -0.12032327800989151, 0.01842496730387211, 0.03539770469069481, 0.028186645358800888, -0.015525982715189457, 0.029871314764022827, 0.12150295823812485, 0.002838409971445799, 0.08308081328868866, -0.014820994809269905, 0.0811014175415039, 0.0008103242726065218, -0.04157092422246933, 0.0515795573592186, -0.016711261123418808, -0.07355646044015884, 0.0015185038791969419, 0.10160806030035019, -0.11179674416780472, -0.1429673433303833, -0.23223787546157837, -0.20367878675460815, -0.011266909539699554, 0.13453803956508636, -0.04410171136260033, -0.1595715880393982, -0.1476771980524063, -0.021567223593592644, 0.09279437363147736, 0.126699760556221, -0.07160746306180954, -0.006059511564671993, 0.036032047122716904, 0.07906355708837509, 0.11669739335775375, 0.07807780057191849, -0.047912124544382095, -0.014524383470416069, 0.026315677911043167, 0.04294448345899582, 0.02574855461716652, -0.03026197850704193, -0.1165136843919754, 0.013997149653732777, -0.13703161478042603, 0.0007627671002410352, -0.12242091447114944, -0.02228093519806862, -0.3142569959163666, -0.25348961353302, 0.26513683795928955, 0.19715523719787598, -0.08063056319952011, -0.0010978493373841047, -0.29350546002388, -0.0642315149307251, -0.03015819750726223, 0.09552665799856186, -0.08414600789546967, -0.027291065081954002, -0.0175382848829031, 0.15782201290130615, 0.033819422125816345, 0.039929747581481934, -0.08600789308547974, -0.03703870624303818, 0.06481016427278519, 0.08505439758300781, 0.09054973721504211, -0.16209162771701813, -0.10156208276748657, -0.1076434850692749, 0.11602995544672012, 0.03305096551775932, -0.2911718487739563, -0.15639132261276245, -0.25141921639442444, -0.4197979271411896, -0.21733222901821136, 0.18628986179828644, -0.11368077248334885, -0.07067668437957764, -0.1618073731660843, -0.08326204121112823, 0.13428205251693726, 0.09034717828035355, -0.0621538944542408, -0.11354903876781464, -0.079306460916996, 0.03931760787963867, 0.02536722645163536, -0.07194966822862625, 0.014342927373945713, 0.18829059600830078, 0.26390671730041504, 0.20973074436187744, 0.039090774953365326, -0.07996460050344467, -0.08352357149124146, 0.14267197251319885, 0.057085633277893066, -0.14402152597904205, -0.15289191901683807, -0.1640022099018097, -0.35224878787994385, -0.3933637738227844, -0.3620271384716034, -0.06426434218883514, -0.08467311412096024, -0.11119072139263153, -0.06060650199651718, 0.12855209410190582, 0.11763027310371399, 0.17239134013652802, -0.03755473718047142, -0.1051219180226326, -0.03550228103995323, -0.05813812091946602, -0.0520956814289093, -0.051328107714653015, -0.04666217416524887, 0.08622979372739792, 0.1630040556192398, 0.11760971695184708, 0.03872370347380638, -0.06266414374113083, 0.07525673508644104, 0.060387711971998215, -0.13227416574954987, -0.16511426866054535, -0.08914065361022949, -0.11271390318870544, -0.029360653832554817, 0.09625309705734253, -0.09575234353542328, -0.19086137413978577, 0.05463522672653198, 0.05135570466518402, 0.03840441256761551, 0.09004783630371094, 0.14245396852493286, 0.09786660224199295, 0.05239710956811905, -0.0731993243098259, -0.11017295718193054, -0.021469686180353165, -0.019943008199334145, 0.03565618023276329, -0.007900136522948742, -0.015692006796598434, 0.01879221573472023, 0.15237638354301453, 0.08398023992776871, -0.13117557764053345, 0.0033763665705919266, -0.06185589358210564, -0.2580251395702362, -0.19115087389945984, -0.1088942214846611, -0.06228366121649742, 0.193513885140419, 0.008288747631013393, -0.010163936764001846, -0.06153416633605957, -0.04563865810632706, 0.01705618016421795, -0.09690256416797638, 0.11747410148382187, 0.04582027345895767, 0.026873955503106117, -0.0900438204407692, -0.05504615977406502, -0.08624552935361862, -0.05276571959257126, -0.04091471806168556, 0.11976685374975204, 0.12043969333171844, 0.02453549951314926, 0.12851260602474213, 0.14128686487674713, 0.02600536309182644, -0.08985548466444016, -0.021669216454029083, -0.03780965879559517, -0.1556173712015152, -0.07925987988710403, -0.09414664655923843, 0.02198932319879532, 0.1240939348936081, -0.016346294432878494, 0.1261647492647171, -0.13577118515968323, 0.0903460904955864, 0.14225272834300995, -0.10015026479959488, 0.09559359401464462, 0.13617819547653198, 0.07988815009593964, -0.10090726613998413, -0.13723433017730713, 0.027605995535850525, -0.08223647624254227, -0.018684525042772293, -0.03713888302445412, -0.030750783160328865, 0.03483574464917183, 0.16249383985996246, 0.1623874455690384, 0.18874762952327728, -0.06705973297357559, -0.004726280923932791, 0.0024312937166541815, -0.1484941691160202, -0.14050771296024323, -0.06325439363718033, -0.19209671020507812, 0.07062310725450516, 0.045555613934993744, -0.03925427794456482, -0.07693257182836533, 0.17583291232585907, 0.1494593471288681, -0.026029419153928757, 0.11419545114040375, 0.009274194948375225, 0.045830678194761276, -0.09860368818044662, -0.008576546795666218, -0.05586370453238487, -0.06661126017570496, 0.05982667952775955, 0.03128732368350029, -0.15828895568847656, 0.06715264171361923, 0.0935131087899208, 0.1111946776509285, 0.10471933335065842, -0.039905156940221786, -0.049359116703271866, -0.06084996834397316, -0.11828457564115524, -0.03045334666967392, 0.013867910951375961, -0.02683948539197445, 0.0870392918586731, 0.09475279599428177, 0.06968629360198975, -0.065565325319767, 0.06520833820104599, -0.06258594244718552, 0.034977689385414124, -0.015706436708569527, -0.03658091276884079, 0.03717677295207977, 0.021313589066267014, -0.06439659744501114, -0.015483442693948746, -0.05709725618362427, -0.0778159573674202, 0.0014623950701206923, -0.023760313168168068, -0.05640918388962746, -0.1024717465043068, -0.03760663419961929, 0.06932452321052551, -0.05444128438830376, -0.0012518997536972165, 0.03590819239616394, -0.0979539081454277, -0.10101103037595749, 0.007388942409306765, 0.14546415209770203, -0.11282952129840851, 0.16799712181091309, -0.006629610434174538, 0.017352933064103127, 0.13143830001354218, 0.08534656465053558, 0.04553627222776413, 0.1285446435213089, 0.1317940503358841, -0.1053595021367073, 0.01366657204926014, 0.0831909030675888, -0.06054060906171799, -0.04406727850437164, -0.12938889861106873, -0.03125958889722824, 0.03270275518298149, 0.01354276668280363, 0.0051889182068407536, 0.00925369095057249, -0.07891599088907242, -0.07359147071838379, 0.007436738815158606, 0.0896269753575325, 0.09191731363534927, 0.04507984593510628, 0.17584002017974854, 0.19994446635246277, -0.09736311435699463, -0.038923729211091995, -0.015778444707393646, -0.007091400679200888, 0.13316594064235687, 0.0395221970975399, 0.13453136384487152, 0.06079837679862976, 0.0063540940172970295, 0.04245322197675705, 0.08275099843740463, 0.0869089812040329, 0.06770937889814377, -0.018293235450983047, -0.17128705978393555, -0.029164640232920647, -0.03990186005830765, 0.01587112434208393, -0.013889770023524761, -0.1526305079460144, -0.024255065247416496, 0.002920364961028099, -0.10383903235197067, 0.03898583725094795, 0.011547612026333809, 0.01830504834651947, 0.04446663707494736, -0.008937633596360683, -0.035781607031822205, -0.2152521163225174, -0.12744653224945068, -0.005856486968696117, 0.13538207113742828, 0.0023782621137797832, 0.06267811357975006, 0.1473473310470581, 0.1454627811908722, -0.08575285971164703, -0.04092181846499443, -0.028736494481563568, 0.0419326052069664, -0.022862577810883522, 0.045228298753499985, 0.12931500375270844, 0.06436028331518173, 0.03389539197087288, -0.06692095845937729, -0.06066887453198433, -0.03545546904206276, -0.023058170452713966, -0.022475222125649452, 0.06612996757030487, -0.007830780930817127, -0.0629340261220932, -0.1267191767692566, -0.17335298657417297, -0.15601076185703278, -0.1550322324037552, -0.1846427023410797, -0.09956929832696915, 0.14148585498332977, -0.1303153932094574, 0.05823148787021637, 0.056640416383743286, -0.05043597146868706, 0.05103742703795433, 0.07988174259662628, 0.07060972601175308, -0.021595533937215805, -0.018195826560258865, -0.053232159465551376, 0.06969273090362549, -0.010047631338238716, -0.055026497691869736, -0.007803641259670258, -0.06549814343452454, 0.01873170956969261, -0.0024180032778531313, -0.09672421962022781, -0.024869069457054138, -0.06307324022054672, -0.16886866092681885, -0.1168302670121193, -0.0026412010192871094, -0.18775394558906555, -0.16082406044006348, -0.014900831505656242, -0.19177331030368805, 0.025022707879543304, -0.13039912283420563, 0.061593107879161835, -0.009648610837757587, 0.05461776256561279, -0.02053350768983364, -0.09147513657808304, -0.002288525691255927, -0.0013810083037242293, 0.08752433955669403, -0.05486394837498665, -0.027337443083524704, 0.051577843725681305, 0.06114250048995018, -0.011306523345410824, -0.028338806703686714, -0.04341574385762215, -0.11769341677427292, -0.06906367093324661, 0.1349918693304062, 0.06550845503807068, 0.09939407557249069, 0.21683728694915771, 0.1150975376367569, -0.006410344038158655, 0.06069319695234299, -0.04530039429664612, -0.22986608743667603, 0.012346272356808186, 0.001655434723943472, 0.02542625367641449, 0.05678563565015793, 0.10992701351642609, 0.04230523854494095, -0.06092296168208122, -0.00904065277427435, 0.041242897510528564, 0.056797221302986145, -0.07030639052391052, -0.06496518850326538, -0.07880525290966034, -0.10390882194042206, -0.05767474323511124, 0.0030599539168179035, 0.12026838213205338, -0.07247509062290192, 0.056293223053216934, 0.17226172983646393, -0.0584590807557106, 0.03565333038568497, 0.1079268604516983, 0.09283190220594406, -0.06533826887607574, -0.08283191174268723, -0.2579882740974426, -0.13582217693328857, -0.023459095507860184, 0.0858253464102745, 0.04403362050652504, 0.030555926263332367, 0.009869424626231194, 0.06501520425081253, -0.018858106806874275, 0.0790482610464096, 0.009973947890102863, 0.05477714166045189, -0.055616818368434906, -0.06648708134889603, 0.011866018176078796, 0.0152375977486372, -0.03693928197026253, -0.03349752724170685, -0.061829566955566406, -0.09764814376831055, 0.03721478208899498, 0.0605655238032341, -0.026759376749396324, -0.12364665418863297, 0.06617734581232071, 0.16932998597621918, 0.18042978644371033, 0.01780102215707302, -0.20649836957454681, -0.11541023850440979, 0.00593114597722888, 0.07714112102985382, 0.044555336236953735, -0.08556894958019257, 0.03468436747789383, 0.049715910106897354, -0.04261060059070587, -0.03655118867754936, -0.01766618900001049, 0.13282306492328644, -0.09969858825206757, -0.09124752134084702, -0.10628341883420944, -0.013075250200927258, -0.07902690023183823, 0.07591817528009415, -0.10841645300388336, 0.0910908505320549, 0.0023822940420359373, 0.21426425874233246, 0.09741677343845367, -0.2587522864341736, 0.0683852806687355, -0.142799511551857, 0.15572458505630493, 0.14129114151000977, 0.03424035385251045, 0.10511540621519089, 0.20202063024044037, 0.022659504786133766, 0.12359985709190369, -0.12347614765167236, -0.3041417896747589, -0.0427435040473938, 0.03180747106671333, -0.0006047606002539396, 0.0004793834814336151, 0.17562410235404968, -0.0832354947924614, -0.07563939690589905, -0.12910130620002747, -0.10011321306228638, 0.04252836853265762, -0.12136827409267426, -0.4253193736076355, 0.058700598776340485, -0.037441786378622055, 0.21596534550189972, 0.313292533159256, -0.18231892585754395, 0.023412983864545822, -0.24371100962162018, 0.10295359790325165, 0.1711316555738449, -0.02728576585650444, 0.20231716334819794, 0.06585098803043365, 0.09036144614219666, 0.2983770966529846, -0.12075693905353546, -0.32624682784080505, -0.3016056418418884, -0.14995041489601135, 0.12067814916372299, 0.059364281594753265, 0.03761051595211029, 0.042066872119903564, 0.06833583116531372, 0.16422797739505768, 0.15190516412258148, -0.0779418870806694, -0.2791260778903961, -0.28212273120880127, 0.24505090713500977, 0.08741674572229385, -0.07994859665632248, 0.05081188306212425, -0.19724880158901215, 0.010452205315232277, -0.07222048193216324], [-0.13026820123195648, -0.03374750539660454, 0.07945380359888077, -0.15825940668582916, -0.15340399742126465, -0.27714499831199646, -0.5476228594779968, -0.18899117410182953, 0.16015572845935822, 0.07095243036746979, -0.1322374939918518, 0.13496263325214386, 0.09297199547290802, 0.029093120247125626, 0.2432885468006134, 0.061359863728284836, 0.012315118685364723, -0.08122273534536362, -0.09649460762739182, 0.13491909205913544, -0.15503330528736115, -0.5435569882392883, -0.5372308492660522, -0.14217352867126465, -0.008330323733389378, -0.16886276006698608, -0.324244886636734, -0.06111245974898338, 0.14800912141799927, -0.06746996194124222, -0.07172693312168121, -0.19451923668384552, -0.27092501521110535, -0.42934706807136536, -0.3688480854034424, 0.006147150415927172, -0.18784122169017792, -0.3359411954879761, -0.09447040408849716, 0.0833035260438919, -0.031190022826194763, -0.06337198615074158, 0.07624559104442596, 0.04547809809446335, -0.015751009806990623, -0.04914654418826103, -0.13663527369499207, -0.17274092137813568, -0.13419263064861298, -0.2033681422472, -0.33321163058280945, -0.3258807063102722, -0.21544840931892395, -0.09666188806295395, -0.3156266212463379, 0.07975387573242188, -0.05507746711373329, -0.08687947690486908, -0.16037186980247498, 0.09947679191827774, -0.1017613634467125, 0.01647801883518696, 0.12122941017150879, -0.012441635131835938, -0.22497688233852386, -0.24164025485515594, 0.02892429009079933, 0.13714398443698883, 0.11176460236310959, 0.16553811728954315, 0.04324065148830414, 0.11716269701719284, 0.032985128462314606, 0.04294189438223839, -0.067669577896595, -0.20700404047966003, -0.02115924097597599, 0.029244085773825645, 0.17215381562709808, 0.060090627521276474, -0.18097056448459625, -0.1388239711523056, -0.3015490174293518, -0.06577615439891815, -0.20648100972175598, -0.22367502748966217, 0.09516450017690659, 0.0775533989071846, 0.15850456058979034, 0.11736111342906952, 0.028190387412905693, -0.20159053802490234, -0.08909796923398972, 0.03166459873318672, -0.012599767185747623, -0.08951425552368164, 0.22440649569034576, 0.036970704793930054, -0.07754912227392197, 0.037860047072172165, 0.01858781836926937, 0.04766141250729561, -0.03922795504331589, 0.06457383930683136, -0.0990198403596878, 0.07306049764156342, 0.16676895320415497, 0.273481547832489, 0.12095997482538223, -0.1478678584098816, -0.2461673617362976, -0.20758944749832153, -0.1352214813232422, 0.017900006845593452, 0.018162701278924942, 0.16671642661094666, 0.08435389399528503, 0.09647881239652634, 0.09600581973791122, -0.05363061651587486, -0.1233004480600357, -0.08076808601617813, -0.08473296463489532, -0.07053381949663162, 0.004098839592188597, 0.02364657260477543, -0.07059553265571594, 0.06605130434036255, -0.07498916238546371, -0.09117988497018814, 0.0344710648059845, -0.011067907325923443, 0.05902014300227165, 0.14045873284339905, 0.16383501887321472, 0.20545843243598938, 0.1536678522825241, -0.04194347560405731, -0.10327692329883575, -0.03367026895284653, -0.12258069217205048, -0.04503665119409561, 0.14371797442436218, 0.03554181382060051, 0.31514695286750793, 0.03730124607682228, 0.0846615731716156, 0.07973457872867584, -0.11561910063028336, -0.11476277559995651, -0.1634531021118164, -0.046137936413288116, -0.012215959839522839, -0.07028526812791824, -0.09134465456008911, -0.13982443511486053, 0.03019382618367672, -0.0032485947012901306, -0.02278183586895466, 0.038594555109739304, 0.01956920698285103, -0.004936656914651394, 0.11209196597337723, 0.23204533755779266, 0.05634269863367081, 0.16557030379772186, 0.06312044709920883, 0.08085006475448608, 0.15160268545150757, 0.1612873077392578, 0.22884418070316315, 0.15639719367027283, 0.08229723572731018, -0.002799771958962083, 0.1184462308883667, 0.059549663215875626, -0.1078084409236908, -0.12187201529741287, -0.1202465146780014, -0.026250557973980904, -0.029873736202716827, -0.012999927625060081, -0.07996570318937302, 0.14004573225975037, 0.007847596891224384, 0.018286867067217827, -0.08889210969209671, -0.012377619743347168, 0.05062965676188469, 0.030569348484277725, 0.15622977912425995, 0.2171047180891037, 0.12685661017894745, 0.22974319756031036, 0.13097886741161346, 0.0789344310760498, 0.2958240807056427, 0.28716573119163513, 0.2407558709383011, 0.05260419845581055, 0.07010740041732788, 0.06167610362172127, 0.1712818294763565, 0.2119036465883255, 0.04565379396080971, -0.14493611454963684, -0.016865739598870277, -0.0442926287651062, 0.021184558048844337, -0.0518697090446949, -0.04632958024740219, 0.08997156471014023, 0.09327389299869537, -0.02480878122150898, -0.054548438638448715, -0.07457121461629868, 0.02346227318048477, 0.04881800711154938, 0.01737360469996929, 0.07025597244501114, 0.08101706951856613, 0.10090750455856323, -0.03730934485793114, -0.008703449741005898, 0.11073685437440872, 0.19731028378009796, 0.07670014351606369, -0.02669300138950348, 0.22169002890586853, 0.040477778762578964, 0.10990583896636963, 0.20222227275371552, 0.0042073666118085384, -0.03703736513853073, -0.07023888826370239, -0.08945111930370331, 0.04989577829837799, -0.07764275372028351, -0.037753984332084656, 0.06454509496688843, 0.08690623939037323, 0.06594164669513702, 0.010720054619014263, -0.04817305505275726, 0.01724642887711525, 0.08348217606544495, 0.06517355889081955, 0.01142207533121109, 0.19545191526412964, 0.03673085197806358, -0.022844385355710983, -0.19270534813404083, 0.03147547319531441, 0.08087770640850067, 0.0027150805108249187, -0.03833884745836258, 0.23092789947986603, 0.043519262224435806, 0.061883389949798584, 0.17536549270153046, 0.11532115936279297, 0.01057165116071701, 0.008482630364596844, -0.05445070192217827, -0.001462452346459031, -0.03844884783029556, 0.034044940024614334, 0.025508353486657143, 0.10529264062643051, 0.13798509538173676, 0.056400615721940994, 0.09133012592792511, 0.03806048259139061, 0.19603446125984192, 0.05655721575021744, 0.11699538677930832, 0.027330834418535233, -0.2504919767379761, -0.23659731447696686, -0.1531318873167038, -0.13111090660095215, -0.021313315257430077, 0.01614578813314438, -0.07713291794061661, -0.005091875325888395, 0.1931879073381424, 0.04789644852280617, 0.10859835892915726, 0.10548735409975052, 0.038996972143650055, -0.01979653723537922, 0.05680239200592041, 0.13267585635185242, -0.041057419031858444, -0.018803223967552185, -0.04078004136681557, 0.06805244833230972, 0.11681845039129257, 0.04910019040107727, 0.10698898881673813, 0.08869057893753052, 0.096708744764328, 0.12083505094051361, 0.14892727136611938, -0.037186164408922195, -0.33839067816734314, -0.2810250222682953, -0.1789812296628952, -0.0883115604519844, 0.004865533206611872, -0.011547146365046501, -0.06432128697633743, 0.05547694116830826, 0.10443618893623352, -0.050424326211214066, 0.10886422544717789, 0.03126334771513939, -0.00777153205126524, -0.0073105208575725555, 0.017030565068125725, -0.004092988558113575, -0.037942055612802505, -0.08682408928871155, -0.0234637800604105, 0.008118894882500172, 0.05730150267481804, 0.15210193395614624, 0.14329396188259125, 0.1065964475274086, 0.17209601402282715, 0.06286407262086868, -0.004372307565063238, -0.109188973903656, -0.36043378710746765, -0.20140694081783295, -0.16934919357299805, 0.24268370866775513, 0.07720931619405746, 0.09848140180110931, 0.09316093474626541, 0.13116955757141113, -0.008397562429308891, -0.1214270368218422, 0.05665319785475731, 0.09113722294569016, 0.024090159684419632, -0.07919242978096008, -0.010017982684075832, 0.016907738521695137, -0.09700128436088562, -0.11837486922740936, 0.014141087420284748, -0.0012315608328208327, 0.12843209505081177, -0.05761697515845299, 0.19173477590084076, 0.17170727252960205, -0.05678088963031769, 0.09153411537408829, -0.04601879045367241, -0.04514880105853081, -0.3540215492248535, -0.12035246193408966, -0.09911990910768509, -0.00965486653149128, 0.06329291313886642, -0.14188213646411896, -0.12087774276733398, 0.01434923242777586, 0.03785425052046776, -0.0009176777675747871, 0.07142123579978943, 0.08492478728294373, 0.013468651100993156, -0.05309578403830528, 0.0003354793007019907, 0.07359784096479416, -0.14817020297050476, -0.03373290225863457, 0.03310379758477211, 0.012511968612670898, 0.12727323174476624, 0.09066000580787659, 0.10744387656450272, 0.10711877793073654, 0.08378373086452484, -0.02970937453210354, -0.1634579598903656, -0.03628905117511749, -0.26422441005706787, 0.0060691689141094685, 0.028512287884950638, 0.010006607510149479, -0.15668177604675293, -0.3684559464454651, -0.11628905683755875, 0.03798734024167061, -0.06129065528512001, 0.05703243985772133, 0.039988722652196884, 0.025153454393148422, 0.047610096633434296, -0.05478668585419655, 0.05267582833766937, 0.014455441385507584, -0.09483250230550766, -0.04346416890621185, 0.01732039824128151, 0.0003379789995960891, -0.010126854293048382, -0.10157656669616699, -0.10209953784942627, 0.015789266675710678, -0.0657767504453659, 0.026209602132439613, -0.04495730251073837, -0.0046943314373493195, -0.10045468062162399, -0.0049385325983166695, 0.1192186027765274, -0.10091148316860199, 0.0136968232691288, -0.26374179124832153, -0.0048604742623865604, -0.1620616763830185, -0.004259325098246336, 0.019993826746940613, 0.05792007967829704, -0.05820692703127861, -0.03665486350655556, -0.07738352566957474, -0.11498377472162247, 0.029778532683849335, -0.10500815510749817, -0.032533932477235794, -0.11475692689418793, 0.02106296643614769, -0.009885339997708797, 0.002308929106220603, -0.08312840014696121, 0.13827534019947052, -0.032618604600429535, -0.05914537236094475, 0.004632317926734686, 0.0722011849284172, 0.07104423642158508, 0.08972955495119095, 0.20853376388549805, 0.06528942286968231, -0.02932729758322239, -0.0631488636136055, 0.1291952282190323, 0.07153601944446564, 0.006708045955747366, -0.08454865217208862, 0.06905558705329895, -0.04066842049360275, -0.04243847355246544, 0.0028229125309735537, 0.04645666480064392, -0.05132767930626869, -0.0927320346236229, 0.028272440657019615, 0.026934636756777763, -0.024802643805742264, 0.057038381695747375, 0.048406198620796204, -0.11099815368652344, 0.05571524798870087, -0.04603063687682152, -0.08601731806993484, 0.040220003575086594, 0.186073437333107, 0.04210380092263222, -0.03419269621372223, 0.03335372358560562, -0.08437186479568481, -0.20556868612766266, -0.1852284073829651, 0.1898830235004425, 0.10010818392038345, 0.0066497838124632835, -0.05298328772187233, -0.03707459941506386, -0.05040823295712471, -0.04595399275422096, -0.020192326977849007, 0.031893908977508545, -0.08321315795183182, -0.009712121449410915, -0.04246686398983002, -0.029870331287384033, -0.06949002295732498, 0.10156390815973282, -0.1456872969865799, -0.13427843153476715, -0.04705086722970009, -0.0681360736489296, 0.010689147748053074, 0.08144927024841309, 0.057183023542165756, -0.033418864011764526, -0.08666056394577026, -0.12609446048736572, -0.04362776502966881, -0.3096664249897003, -0.31667351722717285, 0.07025688886642456, -0.053622517734766006, -0.16048111021518707, -0.09040259569883347, 0.03227165713906288, -0.008500817231833935, 0.0077358996495604515, -0.038878366351127625, -0.007205612491816282, -0.09373998641967773, -0.15411172807216644, -0.13574349880218506, 0.015236327424645424, -0.08426167070865631, 0.02310004271566868, -0.06721130013465881, -0.1535061150789261, -0.11203841865062714, -0.17626647651195526, -0.13933750987052917, -0.14958924055099487, 0.12241190671920776, 0.03077196329832077, -0.08892515301704407, -0.019412972033023834, -0.13453514873981476, -0.44582879543304443, -0.08793120831251144, -0.07240418344736099, -0.12878555059432983, -0.15375594794750214, -0.1374140977859497, -0.15015414357185364, -0.10759638249874115, 0.006586134433746338, -0.05019445717334747, -0.08646600693464279, -0.2160673588514328, -0.14975614845752716, -0.23923201858997345, -0.079833023250103, -0.06099137291312218, 0.015105824917554855, -0.11943769454956055, -0.18107621371746063, -0.08215829730033875, -0.06986089050769806, -0.23339501023292542, -0.07182437926530838, 0.10188688337802887, 0.057776208966970444, -0.09295778721570969, -0.08379971235990524, -0.05779536813497543, -0.1258055865764618, -0.1362832635641098, -0.0028124642558395863, -0.20981189608573914, -0.1972178816795349, -0.0814405307173729, -0.014566242694854736, -0.0344480499625206, -0.0972028598189354, 0.02621285431087017, -0.08555326610803604, -0.05602980777621269, -0.11837448924779892, -0.008993146009743214, -0.009721510112285614, 0.05127463862299919, -0.035430796444416046, -0.019996637478470802, -0.099421925842762, -0.009208068251609802, -0.07296374440193176, -0.2110343724489212, -0.06097009778022766, -0.029096320271492004, 0.006072157062590122, 0.060336340218782425, -0.1493857353925705, -0.17866607010364532, -0.21301138401031494, -0.011101959273219109, -0.02592678926885128, -0.04602624103426933, -0.2436448335647583, -0.10160742700099945, -0.007656699977815151, 0.03531413897871971, 0.047840412706136703, -0.03294102102518082, -0.039276253432035446, -0.029099997133016586, -0.08079364150762558, -0.08228522539138794, 0.037375062704086304, -0.08722022920846939, -0.017885128036141396, 0.029053062200546265, -0.15174603462219238, -0.10947685688734055, -0.0155094675719738, -0.23473766446113586, -0.0956655889749527, 0.10294602811336517, 0.07663791626691818, 0.13272611796855927, 0.05531458184123039, -0.11173810809850693, -0.21910879015922546, -0.1131126657128334, 0.03381974995136261, -0.015612124465405941, -0.07788075506687164, 0.03201702609658241, 0.046670567244291306, 0.01892746053636074, -0.0397508330643177, -0.08235020935535431, 0.021294428035616875, 0.032539937645196915, -0.059354934841394424, -0.007072495762258768, -0.04671958461403847, -0.039837393909692764, -0.18067441880702972, 0.1383742392063141, -0.06485988199710846, -0.02877715416252613, 0.1304122656583786, -0.220256969332695, -0.020386971533298492, 0.0063287848606705666, -0.03238552808761597, 0.0848434790968895, 0.047716353088617325, 0.01990850456058979, 0.018474198877811432, -0.00031563566881231964, 0.1056637391448021, -0.15742653608322144, -0.10579485446214676, -0.022114697843790054, 0.22951790690422058, 0.025833232328295708, 0.07203777879476547, 0.018198661506175995, 0.06729690730571747, 0.0776110365986824, 0.032893408089876175, -0.08778099715709686, -0.0010223169811069965, -0.025415930896997452, 0.010638391599059105, 0.12745356559753418, -0.04264739155769348, 0.022424422204494476, 0.1540243923664093, -0.14814496040344238, 0.01077278796583414, 0.11829148232936859, 0.08877874910831451, 0.30466988682746887, 0.2557121813297272, 0.006083142478018999, 0.0017039596568793058, -0.010015944950282574, -0.08147832751274109, -0.19636209309101105, -0.11878682672977448, 0.13397300243377686, 0.07186011970043182, 0.09056185185909271, 0.11536125093698502, -0.009704016149044037, 0.013012825511395931, -0.07080380618572235, -0.04464845359325409, -0.10369350761175156, -0.1451306790113449, 0.027315683662891388, -0.0943736806511879, 0.08011981844902039, -0.22093279659748077, -0.07538404315710068, 0.15018826723098755, -0.08851218223571777, -0.18115319311618805, 0.001032166532240808, -0.09152929484844208, 0.1647183746099472, 0.23797084391117096, 0.10348208993673325, 0.05837720260024071, 0.05149800702929497, -0.03932461887598038, -0.06653878092765808, -0.18919137120246887, 0.15114393830299377, 0.07694292068481445, 0.0349554568529129, 0.06464758515357971, 0.008157863281667233, -0.09163351356983185, 0.13952118158340454, -0.027041388675570488, -0.04623525217175484, 0.03545355424284935, 0.02447269856929779, 0.05317417532205582, 0.0291966013610363, -0.03710605576634407, -0.1307622194290161, 0.18106520175933838, -0.2451321929693222, -0.14956095814704895, -0.03950017690658569, 0.11494166404008865, 0.07345099747180939, 0.1751333475112915, 0.056556735187768936, 0.020291347056627274, -0.15295635163784027, -0.043568212538957596, -0.06584969162940979, -0.1542607545852661, 0.19954010844230652, 0.0574754923582077, 0.05607012286782265, 0.1421608030796051, 0.1379290223121643, -0.024291489273309708, -0.012804919853806496, 0.06104644015431404, 0.16066142916679382, -0.010784047655761242, -0.0028602236416190863, 0.06087819114327431, 0.05283806473016739, 0.042932529002428055, -0.016470499336719513, 0.1887892782688141, -0.2329036444425583, -0.45846641063690186, -0.06843026727437973, 0.02535177581012249, -0.0225171260535717, -0.10342187434434891, -0.00833672471344471, -0.18841296434402466, -0.15596269071102142, -0.02564130164682865, 0.0020661691669374704, -0.09092111885547638, 0.1262219101190567, 0.1826331615447998, 0.018414588645100594, 0.141579732298851, -0.030450625345110893, -0.03238208219408989, -0.028076859191060066, 0.027140118181705475, -0.038830406963825226, -0.05443430691957474, -0.11020281910896301, 0.07241231203079224, 0.10761777311563492, 0.18405738472938538, 0.40351855754852295, 0.3351956903934479, -0.046022459864616394, -0.21640577912330627, -0.05557248368859291, 0.1358334869146347, -0.0691838264465332, -0.030155541375279427], [0.11345339566469193, 0.20330092310905457, 0.007564954459667206, 0.11371269077062607, -0.27892744541168213, -0.017816640436649323, -0.22977423667907715, -0.2057599276304245, 0.06728295236825943, -0.017927777022123337, -0.0025479579344391823, 0.16633324325084686, 0.20321257412433624, 0.1259039342403412, -0.03538495674729347, 0.16033810377120972, 0.23379765450954437, 0.05967813730239868, 0.011702001094818115, -0.11770819127559662, -0.30849266052246094, -0.3172840178012848, -0.1566573679447174, -0.09512802958488464, 0.1296861320734024, -0.17285509407520294, 0.0575333833694458, -0.06229499727487564, 0.20270214974880219, 0.11566707491874695, 0.17937017977237701, 0.1273743212223053, -0.25387006998062134, -0.37171775102615356, -0.22069051861763, -0.05477556958794594, -0.2053697109222412, -0.30147555470466614, 0.030610820278525352, 0.2092113047838211, 0.38023895025253296, 0.37694454193115234, 0.3060216009616852, 0.5190714001655579, 0.27765434980392456, 0.13993847370147705, -0.1336078941822052, -0.4008963704109192, -0.3062320053577423, -0.1989041268825531, -0.42871150374412537, -0.3212256133556366, 0.07957734167575836, 0.1087806448340416, 0.09655791521072388, 0.01225641742348671, 0.15555249154567719, -0.048749685287475586, -0.07955129444599152, -0.060486651957035065, -0.2689962387084961, -0.1269844025373459, -0.005028341896831989, -0.09337811917066574, -0.14338310062885284, 0.08858487010002136, 0.2112436592578888, 0.009542273357510567, 0.25831350684165955, 0.5182104706764221, 0.5046294331550598, 0.3532375395298004, 0.16176798939704895, 0.03836723044514656, -0.11210093647241592, -0.02363656647503376, -0.020014530047774315, -0.19114528596401215, -0.17210212349891663, -0.2971270978450775, -0.1699078232049942, -0.11316704005002975, -0.07242834568023682, 0.014727701433002949, 0.06750762462615967, -0.1924411952495575, -0.21493732929229736, 0.06810714304447174, 0.1846158504486084, 0.04573899880051613, -0.03662138432264328, 0.08609580993652344, -0.052362535148859024, 0.09519517421722412, 0.09987109154462814, 0.0030640161130577326, 0.009532921016216278, 0.22257570922374725, 0.3770841062068939, -0.0387934148311615, -0.07940210402011871, -0.05486008897423744, -0.1127052903175354, -0.03490439057350159, 0.1153721958398819, 0.08292544633150101, 0.08693677186965942, 0.0442609041929245, -0.11096717417240143, -0.3020152449607849, -0.0289677195250988, -0.15826629102230072, -0.07391699403524399, -0.2352122962474823, 0.006316426210105419, -0.06138402968645096, 0.14888834953308105, 0.057959649711847305, 0.1317068487405777, 0.12031145393848419, -0.04415985941886902, -0.044679027050733566, -0.18724626302719116, 0.009582688100636005, 0.11086595803499222, 0.11992127448320389, 0.23337584733963013, 0.21422095596790314, 0.07687396556138992, -0.03621172532439232, -0.1789117306470871, -0.17844586074352264, -0.11981434375047684, 0.0283805038779974, 0.23648501932621002, 0.0929223895072937, 0.1859869509935379, -0.08842626959085464, -0.08898231387138367, -0.0812835693359375, -0.18465998768806458, -0.03426755964756012, 0.16834291815757751, -0.09708614647388458, 0.00440747058019042, 0.03914687782526016, -0.004995191935449839, -0.13170209527015686, -0.044610511511564255, -0.029134152457118034, -0.1499973088502884, 0.03306564688682556, -0.07569654285907745, 0.11268097907304764, 0.17503200471401215, 0.038984496146440506, -0.03311815485358238, -0.12888014316558838, -0.01509962696582079, -0.1386037915945053, -0.21732079982757568, -0.03146186098456383, 0.08498366177082062, -0.005366681143641472, 0.12921027839183807, 0.10395172238349915, -0.14191214740276337, -0.1281558871269226, -0.06317666172981262, -0.004180865827947855, -0.01096900925040245, 0.011787685565650463, -0.0695216953754425, 0.025995612144470215, 0.010549374856054783, -0.07773652672767639, -0.07540736347436905, -0.08563835918903351, -0.10819105058908463, 0.00977769959717989, -0.05250464007258415, 0.15419460833072662, 0.26987409591674805, -0.09696444123983383, -0.013906872831285, 0.0032357261516153812, -0.17707428336143494, -0.23960857093334198, -0.22990411520004272, -0.03892102465033531, 0.08923511952161789, 0.048355910927057266, 0.005276587326079607, -0.023640101775527, -0.03310257941484451, -0.0679386556148529, -0.1130085363984108, -0.052863191813230515, 0.07936909049749374, -0.08811920881271362, -0.04759740084409714, 0.08443878591060638, 0.012737712822854519, -0.08028890937566757, -0.1238056868314743, -0.11210092157125473, -0.08245377242565155, -0.09576312452554703, -0.21228326857089996, 0.01195448637008667, 0.17602798342704773, -0.050445567816495895, -0.06377916783094406, -0.07683564722537994, -0.10056085139513016, -0.24134671688079834, -0.17387056350708008, -0.15555806457996368, -0.03918752074241638, 0.08281504362821579, -0.034039292484521866, -0.06282307952642441, 0.08461331576108932, 0.08922374993562698, -0.11533599346876144, -0.16492237150669098, 0.006736733019351959, -0.0895504504442215, 0.19496910274028778, 0.0407433807849884, -0.051797810941934586, 0.08874029666185379, -0.15832914412021637, -0.20146112143993378, -0.11290349066257477, -0.08333763480186462, -0.18693527579307556, -0.15228113532066345, 0.07836361229419708, -0.06877192854881287, 0.07091743499040604, -0.08922657370567322, -0.21077241003513336, -0.2989979386329651, -0.037795282900333405, -0.1613951325416565, 0.038579415529966354, 0.011861330829560757, 0.05949926748871803, -0.16631989181041718, 0.0265720896422863, -0.04484805837273598, -0.10856978595256805, -0.015136649832129478, -0.0546567402780056, -0.12088289111852646, 0.17857609689235687, -0.030199792236089706, -0.039177991449832916, 0.0212651789188385, -0.03308411315083504, -0.1006794199347496, -0.03785586357116699, -0.08170907944440842, -0.07939828187227249, -0.11110325157642365, -0.1321287900209427, -0.03690237179398537, -0.0063958014361560345, -0.020542819052934647, -0.04533014073967934, -0.09653455018997192, 0.06618023663759232, -0.01746717467904091, -0.022911423817276955, 0.12375784665346146, 0.03495769202709198, -0.18843427300453186, -0.02192440629005432, -0.04866238310933113, -0.15050330758094788, -0.06399138271808624, -0.24433347582817078, 0.015637006610631943, 0.1791185736656189, -0.13390356302261353, -0.15523770451545715, 0.01945716142654419, 0.14951413869857788, -0.09141933917999268, -0.15121135115623474, -0.13294067978858948, -0.03362779691815376, -0.10062476992607117, -0.004397927783429623, -0.05710756778717041, 0.07350651174783707, -0.012779389508068562, -0.07199887186288834, 0.03304349631071091, -0.025410935282707214, -0.11464796960353851, -0.16038529574871063, 0.05414231866598129, 0.11293408274650574, -0.01606028340756893, -0.18745151162147522, -0.04365658387541771, -0.2128719985485077, -0.17335885763168335, -0.1876496523618698, 0.044090643525123596, 0.004136222414672375, 0.07296968251466751, 0.0070562222972512245, 0.04533499851822853, 0.11073460429906845, -0.02434770204126835, -0.09916648268699646, 0.03945264592766762, -0.007952035404741764, 0.040259841829538345, 0.015909887850284576, -0.08570106327533722, -0.035299818962812424, -0.05937984213232994, -0.03887986019253731, -0.014820722863078117, 0.12542517483234406, 0.036821845918893814, 0.0018651910359039903, 0.104503333568573, 0.08236538618803024, -0.1147221177816391, 0.024374710395932198, -0.010095281526446342, -0.06136972829699516, -0.14766930043697357, -0.13561905920505524, 0.06054672971367836, 0.13540324568748474, 0.0728360116481781, -0.02976478822529316, 0.021517420187592506, -0.04264063760638237, 0.02098838984966278, 0.05546165257692337, -0.05592977628111839, 0.016500374302268028, 0.03032480925321579, -0.015324602834880352, -0.016838135197758675, -0.04580872505903244, -0.14081251621246338, -0.06369657814502716, 0.033715859055519104, -0.11619390547275543, -0.05174309015274048, -0.09456006437540054, 0.0011889964807778597, -0.08199036866426468, -0.033515363931655884, -0.023301109671592712, -0.01633148267865181, -0.19795426726341248, -0.13565725088119507, -0.03529907390475273, -0.0872378721833229, 0.0009452644735574722, -0.08309515565633774, -0.06039711460471153, 0.012538171373307705, -0.04607127234339714, 0.14066478610038757, 0.06673706322908401, -0.05616873875260353, -0.06921767443418503, 0.09036824107170105, 0.02683958411216736, -0.08567079901695251, -0.15571486949920654, -0.14370222389698029, -0.030226172879338264, 0.10300052165985107, 0.05667679011821747, -0.09838725626468658, -0.06644532084465027, -0.18609540164470673, -0.025891300290822983, 0.10374117642641068, -0.07273092120885849, -0.03547238931059837, -0.026585236191749573, -0.07694366574287415, 0.04621332883834839, 0.0635903924703598, 0.05144350230693817, -0.17271991074085236, -0.12596532702445984, -0.1432252675294876, -0.12468700110912323, 0.0019889133982360363, 0.06304669380187988, -0.025936931371688843, -0.08192562311887741, 0.012258809991180897, 0.04848835617303848, 0.04542703554034233, -0.05672759935259819, -0.0004332310345489532, -0.0865253135561943, 0.031009642407298088, -0.014031254686415195, -0.13672499358654022, -0.2262544184923172, -0.17904071509838104, -0.005727552808821201, 0.12887413799762726, -0.19030390679836273, 0.015793945640325546, -0.056736256927251816, -0.03749171271920204, 0.06565923243761063, 0.07250217348337173, -0.01805843971669674, -0.08829458802938461, -0.0928722396492958, -0.04274941235780716, -0.02709992229938507, -0.02601104974746704, -0.10693705081939697, -0.1413078010082245, -0.12671877443790436, -0.045238666236400604, 0.10226185619831085, -0.1848219782114029, -0.15777942538261414, -0.14562176167964935, -0.016550419852137566, 0.026671096682548523, 0.015295930206775665, -0.002812618389725685, -0.12020359188318253, -0.1899523288011551, 0.0874195396900177, 0.057199716567993164, 0.03479422256350517, -0.05983246490359306, -0.007984706200659275, 0.048451703041791916, -0.0735892727971077, 0.060923583805561066, 0.030141256749629974, -0.05981716513633728, -0.022496609017252922, 0.14157846570014954, 0.06756468862295151, 0.06966196000576019, 0.032490599900484085, 0.030560161918401718, -0.017494700849056244, 0.04251924529671669, 0.04391227290034294, 0.04323285445570946, -0.04323254153132439, -0.006146419793367386, 0.006674857344478369, 0.011137929745018482, 0.030465444549918175, 0.03261274844408035, -0.03107740543782711, -0.05876738950610161, 0.03681880235671997, 0.16812579333782196, -0.0019498971523717046, -0.04092719033360481, 0.36703231930732727, 0.16950583457946777, -0.031459223479032516, 0.10467629879713058, 0.02258836105465889, -0.08435001969337463, -0.08778240531682968, 0.006609911564737558, 0.07463832944631577, 0.01614469289779663, 0.01771383360028267, 0.009767104871571064, -0.10593153536319733, -0.014412565156817436, -0.04476877674460411, 0.0004928563721477985, 0.01858867146074772, 0.045442696660757065, -0.0711730569601059, 0.030583230778574944, 0.08911171555519104, -0.06063062697649002, -0.09462054818868637, 0.027171891182661057, 0.009405392222106457, 0.16413810849189758, 0.044060107320547104, 0.13647031784057617, -0.12102257460355759, 0.032527320086956024, 0.09352187067270279, 0.17125187814235687, 0.003611851716414094, -0.05836469680070877, 0.06769941002130508, -0.11462440341711044, -0.03314609080553055, 0.0011846516281366348, -0.005554307252168655, 0.12324197590351105, -0.07558337599039078, 0.009470557793974876, 0.002898185746744275, -0.008513025008141994, -0.055010419338941574, -0.08505922555923462, -0.03440840169787407, 0.024179117754101753, 0.09420769661664963, 0.09021712094545364, -0.07175590842962265, -0.026644377037882805, 0.24516862630844116, 0.11832530796527863, 0.01764221303164959, 0.22089903056621552, -0.0762585923075676, -0.06266558170318604, 0.04452929645776749, 0.06698678433895111, -0.014740626327693462, -0.04398065432906151, 0.14824523031711578, 0.05480274558067322, 0.05780026689171791, -0.09727020561695099, -0.028574194759130478, 0.036850858479738235, -0.052124377340078354, -0.023916112259030342, 0.055452875792980194, 0.07975167781114578, -0.004801316652446985, 0.012394897639751434, 0.04666922613978386, -0.03769362345337868, 0.05541614815592766, -0.0008709787507541478, 0.07758112251758575, 0.010808349587023258, 0.14273372292518616, 0.057107362896203995, 0.013536755926907063, -0.025357356294989586, -0.20692329108715057, -0.21021753549575806, 0.012533126398921013, -0.04125482961535454, 0.03148525953292847, -0.027037227526307106, -0.13493940234184265, 0.12992197275161743, -0.13501772284507751, -0.04163915663957596, 0.014445311389863491, 0.014108361676335335, 0.06318292021751404, -0.011974369175732136, -0.008289080113172531, 0.057551752775907516, 0.020831068977713585, -0.05145198106765747, -0.0002941780840046704, 0.023470371961593628, 0.09486719220876694, 0.14882022142410278, 0.023581258952617645, -0.10405558347702026, 0.15223556756973267, 0.029234468936920166, -0.105295829474926, -0.028119103983044624, 0.1348392367362976, -0.15524548292160034, 0.06765248626470566, -0.06078876554965973, 0.06731513887643814, -0.06018609553575516, 0.04120953008532524, 0.04535916447639465, 0.02471577748656273, 0.05122486874461174, -0.025550102815032005, -0.008705616928637028, 0.06478124856948853, -0.01285327784717083, -0.03776722028851509, 0.01810319721698761, -0.00507374107837677, -0.0006741165998391807, -0.054514288902282715, -0.12718376517295837, 0.08255379647016525, 0.006893702782690525, -0.008619047701358795, 0.07799974828958511, 0.08535163104534149, -0.001557414885610342, -0.08108548820018768, 0.10766281932592392, 0.05612512305378914, -0.27293825149536133, 0.015768196433782578, 0.05107657611370087, 0.003565419465303421, -0.06646988540887833, 0.03172534704208374, -0.0468885712325573, -0.06424003094434738, 0.02732389234006405, 0.001655302825383842, 0.038107432425022125, 0.006489230319857597, -0.05842370167374611, -0.01985476352274418, 0.09415373206138611, 0.001731172320432961, -0.04738837480545044, -0.021539747714996338, 0.09896694868803024, 0.06408108025789261, 0.01024609338492155, -0.06212754175066948, 0.018759774044156075, -0.12529714405536652, -0.009008314460515976, 0.08603204786777496, -0.040833212435245514, -0.012816653586924076, -0.1329268366098404, 0.011474750004708767, -0.06388149410486221, -0.011321035213768482, 0.06648440659046173, 0.07983268052339554, 0.1526985466480255, 0.03390335664153099, 0.06976776570081711, 0.012768729589879513, 0.058405470103025436, 0.02444741688668728, 0.028446828946471214, -0.1099058985710144, -0.06222575157880783, -0.08485305309295654, -0.12496097385883331, 0.03732726350426674, 0.16873174905776978, 0.08911049365997314, 0.01883935183286667, -0.12645819783210754, 0.04725195840001106, -0.0483819805085659, -0.010401835665106773, -0.059878844767808914, 0.055695369839668274, -0.13019683957099915, -0.12281889468431473, -0.1275262087583542, -0.04258447140455246, 0.022602012380957603, -0.04499409720301628, 0.01593315228819847, 0.15962810814380646, 0.11387359350919724, 0.19394879043102264, -0.06628438085317612, -0.06754086911678314, -0.014410434290766716, 0.05612204223871231, -0.07111544907093048, -0.010822709649801254, -0.06211784482002258, -0.03313519060611725, -0.04589319974184036, 0.05015154927968979, 0.15252254903316498, 0.060228027403354645, 